{
  "input_sequences": [],
  "inputs": [
    {
      "name": "input_layer",
      "variables": [
        {
          "name": "DRTauTau",
          "offset": -1.07199705,
          "scale": 1.43921071
        },
        {
          "name": "dRBB",
          "offset": -1.97189164,
          "scale": 0.54881032
        },
        {
          "name": "mMMC",
          "offset": -95.1179657,
          "scale": 0.03408533
        },
        {
          "name": "mBB",
          "offset": -135.41204834,
          "scale": 0.00628613
        },
        {
          "name": "mHH",
          "offset": -515.95837402,
          "scale": 0.00305061
        },
        {
          "name": "mass",
          "offset": -251.0,
          "scale": 0.001335113485
        }
      ]
    }
  ],
  "layers": [
    {
      "activation": "rectified",
      "architecture": "dense",
      "bias": [
        -0.4000372886657715,
        0.46620360016822815,
        -0.06768748909235,
        -0.46127182245254517,
        0.3160446882247925,
        -0.06415782123804092,
        0.4145545959472656,
        0.18169797956943512,
        -0.17641381919384003,
        -0.20159555971622467,
        0.19000329077243805,
        -0.7397472858428955,
        -0.7786098122596741,
        0.24664410948753357,
        -0.32917681336402893,
        -0.009669842198491096,
        -0.24055419862270355,
        -0.01745973713696003,
        -0.14964908361434937,
        0.03374944627285004,
        -0.03753120079636574,
        0.39168277382850647,
        0.6458554863929749,
        -0.015307830646634102,
        -0.18158003687858582,
        -0.11420620232820511,
        0.2899743616580963,
        -0.020533910021185875,
        -0.15837715566158295,
        0.08765310049057007,
        -0.4926133155822754,
        -0.4209456443786621
      ],
      "weights": [
        -0.35619089007377625,
        0.5049315094947815,
        0.227776899933815,
        0.27123960852622986,
        -0.1742096096277237,
        0.45382532477378845,
        -0.251043438911438,
        -0.1697763204574585,
        0.027004122734069824,
        0.12573781609535217,
        0.11043800413608551,
        -1.6610790491104126,
        -0.1558925062417984,
        0.29243412613868713,
        0.16196799278259277,
        0.031214462593197823,
        0.12860549986362457,
        0.01293355505913496,
        -0.02872263267636299,
        -0.037633880972862244,
        0.7486793994903564,
        0.2420831024646759,
        0.42528873682022095,
        -0.15820181369781494,
        -0.19305531680583954,
        -0.06665737181901932,
        0.03525329381227493,
        0.5581960678100586,
        0.33405807614326477,
        0.46937990188598633,
        -0.2832080125808716,
        -0.4331246018409729,
        0.21157898008823395,
        -0.01870424672961235,
        0.11701659858226776,
        0.43004393577575684,
        0.016751768067479134,
        0.08628450334072113,
        -0.4728548228740692,
        0.09855896234512329,
        0.3743171691894531,
        -0.08568596839904785,
        -0.26143938302993774,
        0.13445010781288147,
        -0.26206523180007935,
        -0.4861072599887848,
        -0.006072090473026037,
        -0.5137442946434021,
        -0.06149809807538986,
        0.09198755770921707,
        -0.01385315228253603,
        1.414882779121399,
        -0.2279232144355774,
        0.8183565139770508,
        0.20843406021595,
        -0.29110783338546753,
        0.2944561243057251,
        -0.1486739218235016,
        0.39604732394218445,
        -0.0389472134411335,
        0.03773554787039757,
        -0.16573213040828705,
        -0.5199190378189087,
        -0.01652783900499344,
        0.0017962477868422866,
        0.42091572284698486,
        0.06519770622253418,
        -0.06651115417480469,
        -0.05694082751870155,
        -1.2499679327011108,
        -0.46531981229782104,
        1.372889518737793,
        -0.005399285349994898,
        0.0068734087981283665,
        -0.02828505076467991,
        0.04930767044425011,
        -0.9681076407432556,
        2.1172494888305664,
        -0.13537326455116272,
        0.3781472146511078,
        -0.12441626191139221,
        1.1256279945373535,
        -0.13693182170391083,
        0.35890719294548035,
        0.1787131130695343,
        -0.21107032895088196,
        -0.04813585802912712,
        -0.03041069209575653,
        -0.6228083968162537,
        0.6450082063674927,
        -0.35992732644081116,
        -0.4133063554763794,
        -0.061830874532461166,
        -0.3305308222770691,
        0.20553304255008698,
        -0.273529589176178,
        0.0476955845952034,
        0.3651908040046692,
        0.15082909166812897,
        -0.14017872512340546,
        -0.35354894399642944,
        -0.4419506788253784,
        -0.08861643821001053,
        0.05816428363323212,
        0.5831530094146729,
        -0.0027025812305510044,
        0.0007950227009132504,
        0.013609741814434528,
        -0.07894143462181091,
        0.13814795017242432,
        -0.5132253170013428,
        -0.22042129933834076,
        0.13850730657577515,
        -0.12978023290634155,
        -0.23229742050170898,
        0.07309596240520477,
        -0.3715302050113678,
        0.10087915509939194,
        -0.41988256573677063,
        0.19691826403141022,
        -0.22951634228229523,
        -0.2618613541126251,
        0.03167441487312317,
        0.4935103952884674,
        0.1368403285741806,
        0.37685245275497437,
        0.09691822528839111,
        -0.01351847779005766,
        0.10432376712560654,
        -0.3273966312408447,
        0.5283189415931702,
        -0.7370786070823669,
        -0.05936474725604057,
        -0.15591733157634735,
        0.03180745616555214,
        0.08206593990325928,
        0.5242028832435608,
        -2.3321382999420166,
        -0.1774015575647354,
        -0.12475809454917908,
        0.12223483622074127,
        -0.3061576783657074,
        -0.4084412455558777,
        0.7398505806922913,
        -0.06358828395605087,
        0.07441527396440506,
        -0.22692474722862244,
        -0.19494850933551788,
        0.0871330127120018,
        0.10521293431520462,
        0.15583333373069763,
        0.11704152822494507,
        -0.4271836578845978,
        0.2518754005432129,
        0.25081875920295715,
        -0.05001040920615196,
        -0.07635960727930069,
        0.5922000408172607,
        -0.16238532960414886,
        0.30303263664245605,
        0.35826778411865234,
        0.11360206454992294,
        0.1314757764339447,
        -0.16107651591300964,
        -0.18888038396835327,
        -0.376108318567276,
        -0.23960725963115692,
        -0.4393004775047302,
        0.039703041315078735,
        0.2177974432706833,
        -0.10394713282585144,
        0.48197200894355774,
        -0.08920225501060486,
        0.8997716307640076,
        -0.0886368378996849,
        -0.12298501282930374,
        0.01269612181931734,
        0.34694650769233704,
        -0.3934217393398285,
        1.0743391513824463,
        0.1383427232503891,
        -0.28290727734565735,
        0.26851320266723633,
        0.47207269072532654,
        -0.11110389977693558,
        1.0061304569244385,
        0.049874089658260345,
        0.3218063414096832,
        0.16429144144058228,
        -0.14118970930576324,
        -0.5262851119041443,
        0.14985306560993195
      ]
    },
    {
      "activation": "rectified",
      "architecture": "dense",
      "bias": [
        -0.21192866563796997,
        0.7357220649719238,
        0.017009083181619644,
        0.07498839497566223,
        0.008338662795722485,
        0.09562806040048599,
        0.02180180326104164,
        0.3393998146057129,
        0.031419623643159866,
        0.008060114458203316,
        0.010142745450139046,
        -0.031765166670084,
        -0.08519580215215683,
        0.3862977623939514,
        0.3072383999824524,
        -0.11072669923305511,
        0.004983241204172373,
        0.058553826063871384,
        0.10532742738723755,
        0.15920065343379974,
        0.41981056332588196,
        0.13637736439704895,
        0.037937235087156296,
        -0.030626898631453514,
        -0.16358593106269836,
        -0.042688608169555664,
        -0.1358230859041214,
        0.016484040766954422,
        0.28390079736709595,
        0.022862620651721954,
        0.44592902064323425,
        -0.0605701245367527
      ],
      "weights": [
        -0.0918613076210022,
        -0.19781790673732758,
        0.11387920379638672,
        -0.316430002450943,
        -0.3305419087409973,
        0.03289992734789848,
        -0.15784229338169098,
        -0.31962573528289795,
        -0.12269939482212067,
        -0.15629024803638458,
        0.1581820398569107,
        0.567020833492279,
        0.5104933381080627,
        -0.005973148159682751,
        0.39239776134490967,
        0.22523470222949982,
        -0.10890933126211166,
        -0.02973494865000248,
        -0.2500555217266083,
        0.25166967511177063,
        -0.23599517345428467,
        -0.5015773177146912,
        -0.3773028254508972,
        0.485061377286911,
        -0.17050161957740784,
        -0.012867826037108898,
        -0.2998131513595581,
        -0.25277578830718994,
        0.20072169601917267,
        0.4755685031414032,
        0.17408126592636108,
        0.31885066628456116,
        -0.1194102093577385,
        -0.19242927432060242,
        0.07477828860282898,
        -0.2651813328266144,
        -0.073140449821949,
        -0.2882991433143616,
        -0.0342598594725132,
        -0.044243283569812775,
        -0.14339743554592133,
        -0.081680528819561,
        -0.14995308220386505,
        -0.1363329291343689,
        -0.6811075210571289,
        -0.2766164541244507,
        0.17214861512184143,
        -0.22271867096424103,
        0.10095897316932678,
        0.026627067476511,
        -0.02162558026611805,
        0.030617771670222282,
        0.012861308641731739,
        -0.17374800145626068,
        -0.3938559293746948,
        0.19158823788166046,
        0.2369404435157776,
        0.009072602726519108,
        -0.2023165374994278,
        -0.04651302099227905,
        -0.4598361849784851,
        0.03887714818120003,
        -0.2888168692588806,
        -0.02251659519970417,
        -0.20962953567504883,
        -0.22224122285842896,
        -0.21989977359771729,
        -0.1927383691072464,
        0.11722008138895035,
        0.14706744253635406,
        0.0714154914021492,
        -0.13053707778453827,
        -0.25450873374938965,
        0.01469190139323473,
        0.08757098019123077,
        0.059761323034763336,
        0.20687399804592133,
        -0.2553390562534332,
        0.07934152334928513,
        0.12412092089653015,
        0.040178146213293076,
        0.0012107889633625746,
        0.011448873206973076,
        -0.04880942776799202,
        0.23583494126796722,
        -0.2095521092414856,
        -0.11967311054468155,
        -0.17770694196224213,
        0.30853337049484253,
        -0.15221141278743744,
        0.176016166806221,
        0.14257772266864777,
        -0.04652057960629463,
        0.16226235032081604,
        -0.30020731687545776,
        -0.23767291009426117,
        -0.1216689869761467,
        0.13138242065906525,
        -0.258279025554657,
        -0.20226266980171204,
        -0.08176089078187943,
        -0.29226526618003845,
        -0.2008119523525238,
        -0.1910671442747116,
        0.05273837596178055,
        0.2523711025714874,
        -0.021839294582605362,
        0.045714039355516434,
        0.15943396091461182,
        -0.28304439783096313,
        0.022781256586313248,
        -0.282362699508667,
        0.324314147233963,
        -0.03202913701534271,
        0.03176068514585495,
        0.1036299392580986,
        -0.01978934556245804,
        0.2702556550502777,
        -0.037635449320077896,
        -0.10910411179065704,
        0.011328875087201595,
        -0.11083812266588211,
        0.1276911199092865,
        0.0178595669567585,
        -0.29844096302986145,
        -0.003332712221890688,
        -0.19049862027168274,
        -0.14198526740074158,
        0.13842524588108063,
        0.07496173679828644,
        -0.10563813149929047,
        0.29576826095581055,
        -0.11946313828229904,
        0.06759056448936462,
        0.2198704034090042,
        0.25467649102211,
        0.1039464920759201,
        -0.03904784098267555,
        0.05475951358675957,
        -0.1113542914390564,
        -0.2813248932361603,
        -0.14468730986118317,
        0.1897321343421936,
        -0.2755252420902252,
        -0.22839128971099854,
        0.3824755847454071,
        0.22382335364818573,
        -0.06758427619934082,
        0.08375601470470428,
        0.1362958699464798,
        0.32390227913856506,
        0.2616846561431885,
        0.16984526813030243,
        -0.2696252465248108,
        0.24425914883613586,
        0.2386740893125534,
        -0.2530353367328644,
        0.29318463802337646,
        -0.24264605343341827,
        -0.23046137392520905,
        0.26452040672302246,
        -0.14139732718467712,
        -0.261904776096344,
        -0.1845562905073166,
        0.07696548849344254,
        -0.1655905395746231,
        0.18729622662067413,
        0.08055213838815689,
        -0.025498680770397186,
        0.2468162178993225,
        0.05747363716363907,
        0.15465329587459564,
        -0.18196628987789154,
        -0.16491103172302246,
        0.13657528162002563,
        -0.10250960290431976,
        0.21740761399269104,
        -0.10907676815986633,
        -0.09055950492620468,
        -0.05320541560649872,
        0.10528136044740677,
        -0.033775970339775085,
        -0.2396792322397232,
        0.24818439781665802,
        -0.23121938109397888,
        0.12188195437192917,
        0.16256752610206604,
        0.163328155875206,
        0.010216975584626198,
        0.2755725681781769,
        0.10084224492311478,
        0.08486154675483704,
        -0.30697816610336304,
        -0.06126756966114044,
        -0.08607262372970581,
        0.20142599940299988,
        -0.147638201713562,
        -0.12583722174167633,
        -0.18522563576698303,
        0.03792189434170723,
        -0.2641764283180237,
        -0.1419472098350525,
        -0.26802653074264526,
        -0.12190277129411697,
        -0.0639503002166748,
        0.13938432931900024,
        0.1591251790523529,
        0.2614155113697052,
        0.009003829210996628,
        -0.05464812368154526,
        0.1008458212018013,
        -0.24526435136795044,
        -0.06523540616035461,
        -0.29562056064605713,
        -0.08613487333059311,
        0.09617969393730164,
        -0.29844141006469727,
        0.004629247356206179,
        0.2589743137359619,
        0.1163584291934967,
        -0.11313022673130035,
        -0.029474111273884773,
        0.2889389991760254,
        -0.16761133074760437,
        0.03215671703219414,
        -0.22827525436878204,
        0.17510277032852173,
        -0.115309938788414,
        -0.02285870350897312,
        -0.06782002002000809,
        0.2897424101829529,
        -0.013577582314610481,
        0.1683315485715866,
        0.11072156578302383,
        0.19611120223999023,
        0.043230921030044556,
        0.08710012584924698,
        0.2807420790195465,
        -0.03787361457943916,
        0.28195157647132874,
        0.06660440564155579,
        0.14656904339790344,
        0.12492683529853821,
        -0.21487347781658173,
        0.02121376246213913,
        0.06212610378861427,
        0.05813498795032501,
        -0.040779389441013336,
        -0.00908094272017479,
        -0.2026267796754837,
        -0.09345129877328873,
        -0.23624150454998016,
        -0.11314448714256287,
        -0.19286330044269562,
        -0.11822588741779327,
        -0.28007975220680237,
        -0.26136350631713867,
        0.08356918394565582,
        -0.17578355967998505,
        -0.04448884353041649,
        -0.2627078592777252,
        0.1415463536977768,
        0.0062025804072618484,
        0.12481126934289932,
        -0.06893360614776611,
        0.029861995950341225,
        0.3776594400405884,
        0.14612643420696259,
        0.3324413597583771,
        0.07472295314073563,
        -0.05674036964774132,
        0.03005822002887726,
        0.061583053320646286,
        -0.35460954904556274,
        -0.057517826557159424,
        0.09774033725261688,
        -0.28328588604927063,
        -0.09447330981492996,
        0.02039506658911705,
        0.23936083912849426,
        -0.2388688623905182,
        0.01093965582549572,
        0.15857157111167908,
        0.30986180901527405,
        -0.10107516497373581,
        -0.06976290047168732,
        0.23739218711853027,
        -0.33865365386009216,
        -0.12771937251091003,
        -0.0759408250451088,
        0.16383090615272522,
        -0.13157790899276733,
        0.07723788172006607,
        -0.04552406445145607,
        0.3160230219364166,
        -0.20938721299171448,
        -0.29116708040237427,
        -0.11332770437002182,
        0.19279810786247253,
        -0.2834615111351013,
        -0.07529515773057938,
        -0.37237340211868286,
        -0.14845982193946838,
        -0.042069122195243835,
        0.12425683438777924,
        -0.06318707019090652,
        0.02525467798113823,
        -0.08310668170452118,
        0.21045254170894623,
        -0.026282289996743202,
        0.09935848414897919,
        -0.09698104858398438,
        -0.10197321325540543,
        0.28507328033447266,
        -0.3185598850250244,
        0.0956462174654007,
        -0.22344303131103516,
        0.03179096430540085,
        -0.014024617150425911,
        -0.20184554159641266,
        -0.1026148721575737,
        0.03688974678516388,
        0.21459902822971344,
        0.19386400282382965,
        -0.26636257767677307,
        -0.025225475430488586,
        -0.1287277787923813,
        0.06853232532739639,
        0.0658978819847107,
        -0.153069406747818,
        -0.12646178901195526,
        -0.051298584789037704,
        -0.18791426718235016,
        0.23956990242004395,
        -0.26224660873413086,
        0.1420842707157135,
        -0.22686037421226501,
        0.21640007197856903,
        -0.0750296488404274,
        -0.2150278389453888,
        0.11237072199583054,
        -0.15996970236301422,
        -0.15561917424201965,
        -0.21599726378917694,
        -0.24632997810840607,
        0.2999715507030487,
        -0.11901289224624634,
        0.0458887442946434,
        -0.13926886022090912,
        0.08885762840509415,
        -0.2854136824607849,
        -0.10308802127838135,
        0.259708046913147,
        0.20141179859638214,
        -0.22842952609062195,
        0.10917124897241592,
        -0.20082275569438934,
        -0.13579632341861725,
        0.04889482632279396,
        -0.1842661201953888,
        0.2216961532831192,
        0.38325196504592896,
        0.2830849885940552,
        0.38652074337005615,
        0.3104601204395294,
        -0.08354440331459045,
        0.07943156361579895,
        0.1849449723958969,
        0.06367401778697968,
        0.25344976782798767,
        0.1379537433385849,
        0.044549379497766495,
        -0.3094063103199005,
        -0.12864595651626587,
        0.0635085329413414,
        -0.04271750524640083,
        0.29086214303970337,
        0.015619602985680103,
        -0.2730421721935272,
        -0.09443490952253342,
        -0.3556632101535797,
        0.03498511016368866,
        0.23429691791534424,
        0.08286212384700775,
        0.26598891615867615,
        0.01468607410788536,
        0.31203603744506836,
        0.24877490103244781,
        -0.062260065227746964,
        -0.048522621393203735,
        -0.03709441423416138,
        0.03270154446363449,
        -0.050371889024972916,
        0.24633759260177612,
        0.17417225241661072,
        -0.0583055280148983,
        -0.26314154267311096,
        -0.2933618128299713,
        -0.23997442424297333,
        0.1702190786600113,
        0.03065798059105873,
        -0.17726017534732819,
        0.04321492835879326,
        -0.28932031989097595,
        0.030476711690425873,
        0.3469330668449402,
        -0.22685973346233368,
        -0.06660455465316772,
        0.11555328965187073,
        0.0653986930847168,
        -0.22511246800422668,
        0.17163807153701782,
        -0.2216445356607437,
        -0.06955567747354507,
        0.25442421436309814,
        -0.10860641300678253,
        -0.2003784328699112,
        0.5571418404579163,
        0.05807631462812424,
        -0.40584877133369446,
        0.12543396651744843,
        -0.22120226919651031,
        0.45487740635871887,
        0.36033356189727783,
        -0.054060112684965134,
        -0.2584467828273773,
        0.10427580773830414,
        0.3148895800113678,
        0.2862020432949066,
        -0.0716574639081955,
        -0.07472251355648041,
        0.07252392917871475,
        -0.29921871423721313,
        -0.2861049771308899,
        -0.3079657554626465,
        0.12983404099941254,
        -0.1331077367067337,
        0.017789267003536224,
        0.3186321258544922,
        -0.010824623517692089,
        -0.11651923507452011,
        0.019708381965756416,
        0.32708773016929626,
        -0.19087615609169006,
        0.09556659311056137,
        -0.03294430300593376,
        -0.3670969307422638,
        0.1739889532327652,
        -0.386432021856308,
        0.7123907208442688,
        -0.25418224930763245,
        0.27760395407676697,
        -0.019261781126260757,
        -0.19259895384311676,
        -0.11277443170547485,
        0.25846853852272034,
        0.3561420738697052,
        0.18113958835601807,
        0.03745220974087715,
        0.42255979776382446,
        0.19770631194114685,
        -0.026954391971230507,
        -0.22726190090179443,
        0.04635952040553093,
        0.04047037288546562,
        0.3827740550041199,
        0.14489582180976868,
        -0.07391814142465591,
        -0.10292181372642517,
        0.36331936717033386,
        0.6991220116615295,
        -0.1720949113368988,
        0.16498051583766937,
        -0.20487520098686218,
        -0.0568845309317112,
        0.017691543325781822,
        0.05699270963668823,
        -0.11444685608148575,
        -0.19803227484226227,
        -0.2210962474346161,
        -0.2406831830739975,
        0.16234004497528076,
        -0.21037428081035614,
        -0.3071669042110443,
        -0.1727120280265808,
        0.3308473825454712,
        -0.07504241913557053,
        0.3144751489162445,
        -0.18625497817993164,
        0.23615451157093048,
        -0.038907118141651154,
        0.13398407399654388,
        0.41489073634147644,
        0.0807664766907692,
        0.3621288239955902,
        0.4028050899505615,
        0.0687781274318695,
        -0.16291147470474243,
        -0.21102012693881989,
        -0.16173361241817474,
        -0.09373324364423752,
        -0.3586988151073456,
        0.09025362879037857,
        0.1647588610649109,
        0.21196703612804413,
        -0.15768110752105713,
        -0.14847788214683533,
        -0.29192981123924255,
        0.24113500118255615,
        0.35012587904930115,
        -0.04879584163427353,
        -0.18286330997943878,
        -0.029544271528720856,
        0.2031133472919464,
        0.2827950716018677,
        -0.13204750418663025,
        -0.09407421201467514,
        -0.24002929031848907,
        -0.27188393473625183,
        0.25981876254081726,
        -0.20184208452701569,
        -0.22627787292003632,
        -0.1290401816368103,
        0.15859811007976532,
        0.30105045437812805,
        0.18369941413402557,
        0.11738212406635284,
        -0.0820283591747284,
        -0.14283938705921173,
        -0.22651740908622742,
        0.009792177006602287,
        -0.10660803318023682,
        -0.12987953424453735,
        -0.03324780613183975,
        -0.026953885331749916,
        -0.25370505452156067,
        0.30397528409957886,
        -0.09379399567842484,
        0.14841802418231964,
        0.24794283509254456,
        -0.24985450506210327,
        -0.01723405346274376,
        -0.062485773116350174,
        0.24426229298114777,
        -0.1803392469882965,
        0.13446301221847534,
        -0.287150502204895,
        -0.09530127793550491,
        -0.07672981917858124,
        0.293801486492157,
        -0.23345977067947388,
        0.06572744250297546,
        -0.08420773595571518,
        0.18831975758075714,
        -0.12784510850906372,
        0.24250559508800507,
        0.33109235763549805,
        0.20498569309711456,
        0.0402783565223217,
        -0.04265979677438736,
        -0.047697246074676514,
        0.23698358237743378,
        -0.1656845211982727,
        -0.21341127157211304,
        -0.057619791477918625,
        -0.04763104021549225,
        0.13650552928447723,
        -0.0467461533844471,
        -0.14208026230335236,
        0.11141590029001236,
        0.2894514203071594,
        -0.026589512825012207,
        0.32250460982322693,
        -0.15210823714733124,
        -0.1470489352941513,
        -0.15001673996448517,
        -0.263292521238327,
        0.07896845042705536,
        -0.0548514686524868,
        -0.039922550320625305,
        0.010319449938833714,
        -0.09951552748680115,
        -0.10718020051717758,
        0.13347363471984863,
        -0.11881083250045776,
        -0.017170099541544914,
        -0.29190728068351746,
        0.1418384462594986,
        0.09364622086286545,
        0.08702579140663147,
        0.19292381405830383,
        0.1501159965991974,
        0.394440621137619,
        -0.25253579020500183,
        -0.21086518466472626,
        0.13645102083683014,
        -0.02564147859811783,
        0.07987461239099503,
        0.09970357269048691,
        0.13501286506652832,
        -0.27208632230758667,
        -0.16415567696094513,
        0.28326600790023804,
        -0.0888601541519165,
        0.050715744495391846,
        -0.26810410618782043,
        -0.23648014664649963,
        0.22520144283771515,
        -0.19340650737285614,
        -0.07946465909481049,
        -0.12189701199531555,
        -0.03505156561732292,
        0.1011122465133667,
        0.09468749165534973,
        0.2056158483028412,
        0.03476763889193535,
        0.0427921824157238,
        0.11679897457361221,
        -0.1884153187274933,
        -0.024644922465085983,
        -0.14685481786727905,
        0.011087441816926003,
        -0.21823929250240326,
        0.09643623977899551,
        -0.07869917899370193,
        -0.036123666912317276,
        0.21163687109947205,
        -0.12245882302522659,
        -0.1746925264596939,
        0.07647077739238739,
        0.2334764301776886,
        0.04253325238823891,
        0.18033428490161896,
        0.23739692568778992,
        -0.006480063311755657,
        0.08933524787425995,
        -0.24274998903274536,
        -0.3622173070907593,
        0.06917772442102432,
        -0.17675743997097015,
        -0.4718089699745178,
        0.4851634204387665,
        -0.12155862897634506,
        -0.20624516904354095,
        0.16958051919937134,
        -0.01894419640302658,
        0.3651471734046936,
        0.3726442754268646,
        0.11185930669307709,
        -0.04333677142858505,
        0.10740084946155548,
        0.10232190042734146,
        0.3209467828273773,
        0.25286489725112915,
        -0.39789724349975586,
        -0.10307737439870834,
        -0.12778839468955994,
        -0.5264018774032593,
        -0.11901094764471054,
        0.07051734626293182,
        0.09028637409210205,
        0.06094944477081299,
        0.674029529094696,
        -0.2927370071411133,
        0.13009467720985413,
        0.14931342005729675,
        0.23667973279953003,
        -0.06145940348505974,
        -0.2882237136363983,
        -0.2503933310508728,
        -0.5079202651977539,
        -0.42327842116355896,
        0.07593370974063873,
        -0.2485252022743225,
        0.04516536369919777,
        0.31815919280052185,
        0.3280276954174042,
        0.15779638290405273,
        -0.2831730246543884,
        0.04377257823944092,
        -0.2961941063404083,
        -0.1431456357240677,
        0.30801519751548767,
        -0.43010181188583374,
        0.08220844715833664,
        0.01706947758793831,
        -0.4314241111278534,
        -0.019770851358771324,
        -0.39800623059272766,
        0.12271597981452942,
        0.22351543605327606,
        -0.041009314358234406,
        0.07747135311365128,
        0.11529678851366043,
        -0.48543861508369446,
        0.39566656947135925,
        0.2876225709915161,
        0.3451056182384491,
        0.0607750304043293,
        -0.23746556043624878,
        0.25476425886154175,
        0.4086627960205078,
        0.17896586656570435,
        -0.41197988390922546,
        -0.03699790686368942,
        -0.22850950062274933,
        -0.30361440777778625,
        -0.4309161305427551,
        0.17877385020256042,
        -0.03687646612524986,
        -0.2911421060562134,
        0.0604969784617424,
        0.1738000512123108,
        -0.08568499237298965,
        -0.23004518449306488,
        0.05926233530044556,
        -0.22569110989570618,
        0.24126124382019043,
        -0.32405227422714233,
        -0.23763427138328552,
        -0.2648153007030487,
        0.19106709957122803,
        0.105641670525074,
        -0.21556344628334045,
        0.11365678906440735,
        0.2730028033256531,
        -0.24482984840869904,
        0.13219258189201355,
        -0.15540876984596252,
        -0.19447115063667297,
        0.2840385437011719,
        0.02641073614358902,
        0.1741250455379486,
        0.22258087992668152,
        0.3025379478931427,
        -0.12909309566020966,
        -0.12939608097076416,
        0.1526898443698883,
        0.11856695264577866,
        0.21696825325489044,
        -0.28789007663726807,
        0.2948223054409027,
        -0.22934453189373016,
        0.15888236463069916,
        0.13050685822963715,
        -0.031799789518117905,
        0.08110945671796799,
        0.13071322441101074,
        -0.13161566853523254,
        -0.15610967576503754,
        0.27932849526405334,
        0.2784493565559387,
        -0.09597577154636383,
        -0.20440484583377838,
        0.18990544974803925,
        -0.287622332572937,
        0.25804972648620605,
        -0.061984833329916,
        -0.16409417986869812,
        0.022112132981419563,
        -0.2925896942615509,
        0.08168518543243408,
        -0.03200727701187134,
        -0.3208737075328827,
        0.16474862396717072,
        0.15066714584827423,
        0.010553590953350067,
        0.06189987435936928,
        -0.10551978647708893,
        0.23699362576007843,
        0.1264762133359909,
        -0.14095908403396606,
        0.19182813167572021,
        -0.1687299758195877,
        -0.11483127623796463,
        0.12426795065402985,
        -0.2861962914466858,
        0.0482059046626091,
        0.24841760098934174,
        0.21845309436321259,
        -0.2554788589477539,
        -0.1413242071866989,
        -0.3193970024585724,
        -0.23504628241062164,
        0.014452418312430382,
        -0.20858460664749146,
        -0.14017511904239655,
        -0.29618003964424133,
        0.009872459806501865,
        0.28378647565841675,
        -0.018744997680187225,
        -0.029051095247268677,
        -0.19598707556724548,
        -0.21417336165905,
        0.07085759192705154,
        0.17628300189971924,
        -0.17029811441898346,
        0.19287432730197906,
        -0.20347805321216583,
        -0.060098107904195786,
        -0.17212823033332825,
        0.30244529247283936,
        0.13329482078552246,
        -0.0912172943353653,
        0.18874408304691315,
        -0.13445107638835907,
        -0.08827365189790726,
        0.2061508446931839,
        -0.12308995425701141,
        -0.1256774663925171,
        0.023843888193368912,
        0.12218514084815979,
        -0.1679794192314148,
        0.04422944039106369,
        -0.30799293518066406,
        0.3208971321582794,
        0.018859371542930603,
        -0.12334995716810226,
        -0.17174223065376282,
        -0.030656225979328156,
        -0.12109410762786865,
        -0.17008116841316223,
        -0.25988712906837463,
        0.20203344523906708,
        -0.3035116493701935,
        0.2503575384616852,
        -0.2772121727466583,
        0.18996873497962952,
        0.26132437586784363,
        0.1139562726020813,
        -0.14871935546398163,
        0.06926543265581131,
        0.00016860358300618827,
        0.18897072970867157,
        -0.019453486427664757,
        -0.10008784383535385,
        -0.38983526825904846,
        -0.18537916243076324,
        -0.1542213410139084,
        -0.2639309763908386,
        0.26439616084098816,
        -0.1839805692434311,
        0.30775758624076843,
        0.20758654177188873,
        0.286002516746521,
        -0.2191697508096695,
        0.22898469865322113,
        0.24643062055110931,
        -0.07796034216880798,
        0.00596590293571353,
        0.18108972907066345,
        -0.29621756076812744,
        -0.15034374594688416,
        -0.4084065556526184,
        0.09076210856437683,
        0.25340536236763,
        0.17055603861808777,
        -0.0036150028463453054,
        -0.34140676259994507,
        -0.10509360581636429,
        0.0278921015560627,
        0.3399540185928345,
        0.26792892813682556,
        0.22427700459957123,
        -0.25878769159317017,
        0.5271874666213989,
        -0.07275832444429398,
        0.09293311834335327,
        0.2297634780406952,
        -0.2450631856918335,
        0.31108635663986206,
        -0.14740563929080963,
        0.32744938135147095,
        -0.055879298597574234,
        -0.2714594304561615,
        0.4578247368335724,
        0.2688907980918884,
        0.08452589809894562,
        -0.07138186693191528,
        0.0163566991686821,
        0.26821473240852356,
        -0.00750778429210186,
        -0.07162367552518845,
        0.06313987821340561,
        -0.13931314647197723,
        -0.05486609414219856,
        0.5254001617431641,
        0.28763508796691895,
        -0.12478459626436234,
        -0.0940985158085823,
        -0.03253469616174698,
        0.07625889033079147,
        -0.05531119927763939,
        -0.03437170386314392,
        0.2698156237602234,
        -0.1574731171131134,
        0.09446842223405838,
        -0.40708106756210327,
        -0.23891258239746094,
        -0.31412070989608765,
        0.41701602935791016,
        0.15954957902431488,
        -0.15009230375289917,
        -0.11638516932725906,
        0.023801079019904137,
        -0.08838178217411041,
        -0.02015887200832367,
        -0.2792767584323883,
        -0.2081151157617569,
        -0.10146718472242355,
        0.09572256356477737,
        0.2307327389717102,
        0.011147848330438137,
        0.18147432804107666,
        0.024372702464461327,
        -0.024464255198836327,
        0.20646068453788757,
        -0.24244937300682068,
        -0.4831713140010834,
        -0.04984026402235031,
        0.29457059502601624,
        0.2069029062986374,
        -0.20545731484889984,
        0.14781446754932404,
        0.1129869893193245,
        0.1350913941860199,
        -0.029274143278598785,
        -0.14624930918216705,
        -0.2818329334259033,
        0.24847564101219177,
        0.029870368540287018,
        -0.2180279940366745,
        -0.2396252453327179,
        0.13702012598514557,
        -0.17243890464305878,
        -0.23598062992095947,
        0.1613847017288208,
        -0.20935223996639252,
        0.22780807316303253,
        -0.27831780910491943,
        0.22140760719776154,
        -0.0901392474770546,
        0.04406345263123512,
        -0.05806620419025421,
        0.08038623631000519,
        -0.1796174794435501,
        -0.13518507778644562,
        0.20001012086868286,
        -0.07923845946788788,
        0.28155970573425293,
        0.03415859863162041,
        -0.03855644911527634,
        -0.13717561960220337,
        -0.19317767024040222,
        -0.24315276741981506,
        0.26132717728614807,
        0.2733667194843292,
        -0.2537856996059418,
        -0.20746076107025146,
        -0.018961619585752487,
        -0.30099397897720337,
        -0.5021187663078308,
        0.052576012909412384,
        -0.19856534898281097,
        0.22975577414035797,
        0.10754097253084183,
        0.3226945698261261,
        0.10421950370073318,
        -0.5368289351463318,
        -0.10508416593074799,
        -0.030757077038288116,
        -0.479462593793869,
        -0.536260724067688,
        -0.5302775502204895,
        -0.006591688375920057,
        -0.04089128598570824,
        0.13763469457626343,
        0.10372858494520187,
        0.18874579668045044,
        -0.043132323771715164,
        0.014695833437144756,
        -0.11263826489448547,
        -0.5049412250518799,
        -0.0552164763212204,
        -0.12505818903446198,
        0.02679741382598877,
        -0.08025261014699936,
        0.1719980388879776,
        -0.12523731589317322,
        0.1032695546746254,
        -0.20462828874588013,
        0.06420818716287613,
        -0.07725480198860168,
        -0.09702713042497635,
        0.20821250975131989,
        0.12185382843017578,
        0.1591564416885376,
        -0.23679958283901215,
        -0.19506868720054626,
        -0.25684264302253723,
        0.43670719861984253,
        -0.16905103623867035,
        0.10549814254045486,
        -0.14105263352394104,
        0.1461895853281021,
        0.2675724923610687,
        0.39241823554039,
        0.030844923108816147,
        0.11252040416002274,
        -0.012498239055275917,
        0.26051831245422363,
        0.23051166534423828,
        0.10487952828407288,
        -0.46131250262260437,
        -0.2945348918437958,
        -0.2786925137042999,
        -0.237539142370224,
        -0.0571531243622303,
        -0.07113778591156006,
        -0.03757369890809059,
        0.32494181394577026,
        0.3149195611476898,
        0.2526607811450958,
        -0.14901666343212128
      ]
    },
    {
      "activation": "rectified",
      "architecture": "dense",
      "bias": [
        -0.006527650635689497,
        0.05509352684020996,
        -0.09069002419710159,
        0.22543157637119293,
        0.0029380612540990114,
        -0.011969846673309803,
        0.25989919900894165,
        0.03160339593887329,
        0.11565864086151123,
        -0.016528990119695663,
        -0.004619810730218887,
        -0.10241462290287018,
        0.13342677056789398,
        -0.012782600708305836,
        -0.02905401401221752,
        0.03615260496735573,
        0.004047620575875044,
        0.2947315573692322,
        0.22804053127765656,
        -0.046927325427532196,
        -0.08405596762895584,
        -0.048684995621442795,
        -0.014417672529816628,
        0.2760443091392517,
        -0.04381713643670082,
        0.013224545866250992,
        -0.012015393935143948,
        0.17926381528377533,
        -0.05267242714762688,
        -0.011616712436079979,
        -0.013685816898941994,
        -0.0020893458276987076
      ],
      "weights": [
        0.29720538854599,
        -0.21155665814876556,
        -0.32452481985092163,
        -0.030985817313194275,
        0.28376030921936035,
        0.02447921223938465,
        -0.1978806108236313,
        0.2788739800453186,
        0.2096741795539856,
        -0.23148460686206818,
        -0.036670953035354614,
        -0.012364967726171017,
        0.003736579092219472,
        0.31907835602760315,
        0.3094121217727661,
        0.04202735051512718,
        0.16187165677547455,
        -0.2996263802051544,
        -0.027314692735671997,
        -0.052351225167512894,
        0.471571683883667,
        -0.34229445457458496,
        -0.1645004153251648,
        0.18331989645957947,
        0.11487878113985062,
        0.23925219476222992,
        0.2608143389225006,
        0.16486385464668274,
        0.19818517565727234,
        0.18949683010578156,
        0.033138759434223175,
        -0.0036061876453459263,
        0.4381626546382904,
        0.14668594300746918,
        0.13847188651561737,
        -0.06588758528232574,
        -0.09445726126432419,
        -0.28632012009620667,
        -0.016084207221865654,
        0.21854497492313385,
        -0.12188032269477844,
        -0.21762092411518097,
        0.010103634558618069,
        -0.038300808519124985,
        -0.13057845830917358,
        0.28495585918426514,
        0.23778028786182404,
        0.08906424045562744,
        -0.019296275451779366,
        -0.0652339830994606,
        0.17786885797977448,
        -0.07890766113996506,
        0.2630734145641327,
        0.03767489641904831,
        -0.29140737652778625,
        0.13206511735916138,
        0.09091731905937195,
        -0.009100285358726978,
        0.29943597316741943,
        0.2586979269981384,
        0.05545296147465706,
        -0.06295590847730637,
        -0.2631409466266632,
        0.1269420087337494,
        -0.2841392457485199,
        0.1505984663963318,
        -0.22860701382160187,
        0.08746370673179626,
        0.2557682394981384,
        -0.06233051419258118,
        -0.2574447989463806,
        -0.13892628252506256,
        0.07008655369281769,
        -0.155634343624115,
        -0.117576003074646,
        0.28358158469200134,
        0.25376346707344055,
        -0.0978112667798996,
        0.0010722627630457282,
        0.27444401383399963,
        -0.21420207619667053,
        -0.05148658901453018,
        0.24967460334300995,
        0.2296108901500702,
        0.01703028567135334,
        -0.3073159456253052,
        -0.24336430430412292,
        0.12505050003528595,
        -0.10799107700586319,
        0.09171333909034729,
        0.09631849825382233,
        0.29069504141807556,
        -0.15634073317050934,
        -0.2949904799461365,
        -0.26371511816978455,
        -0.2556088864803314,
        -0.09032710641622543,
        0.4175471067428589,
        0.04475601017475128,
        0.029754186049103737,
        0.23344992101192474,
        0.2260260432958603,
        0.21687471866607666,
        0.06666947156190872,
        0.1989530324935913,
        -0.25906693935394287,
        0.23320429027080536,
        -0.08239790052175522,
        -0.3041094243526459,
        0.17617282271385193,
        -0.25530099868774414,
        -0.07425275444984436,
        -0.06764359027147293,
        -0.31079673767089844,
        0.2472270429134369,
        -0.12495209276676178,
        -0.3674885630607605,
        0.0740203782916069,
        -0.20224781334400177,
        -0.01780741848051548,
        -0.20489592850208282,
        -0.20977427065372467,
        0.0826764777302742,
        -0.13693247735500336,
        -0.1646302491426468,
        -0.23984171450138092,
        0.4180593490600586,
        -0.28045377135276794,
        0.1117621585726738,
        -0.21212852001190186,
        -0.02595684304833412,
        -0.001637004897929728,
        -0.10449953377246857,
        -0.019347410649061203,
        0.12778960168361664,
        0.14886359870433807,
        0.20784974098205566,
        0.14629551768302917,
        -0.10352924466133118,
        0.0644121840596199,
        -0.009820292703807354,
        0.04986219480633736,
        0.02304370328783989,
        -0.18772463500499725,
        -0.12520521879196167,
        -0.026829879730939865,
        -0.24354057013988495,
        -0.011678085662424564,
        0.27912038564682007,
        0.11003567278385162,
        -0.014661590568721294,
        -0.027702243998646736,
        0.15974931418895721,
        0.06751720607280731,
        0.25379058718681335,
        -0.24785274267196655,
        0.12468980997800827,
        -0.05597558245062828,
        0.1262712925672531,
        -0.002092496259137988,
        -0.09091907739639282,
        0.018793737515807152,
        0.1319165974855423,
        -0.2530110478401184,
        -0.23213276267051697,
        -0.13226726651191711,
        0.17690801620483398,
        0.11244270950555801,
        0.20224177837371826,
        0.2061469405889511,
        -0.2640244960784912,
        0.2765582203865051,
        -0.17745815217494965,
        0.39841076731681824,
        -0.2350677251815796,
        -0.1630268543958664,
        0.23494596779346466,
        -0.3011740446090698,
        0.09439991414546967,
        0.3114837110042572,
        0.4529961943626404,
        0.1114562526345253,
        0.08652608096599579,
        0.09448172152042389,
        -0.08259095996618271,
        -0.13353310525417328,
        -0.2291315793991089,
        0.00679382961243391,
        -0.05512078106403351,
        0.2613120973110199,
        -0.32982534170150757,
        -0.05414700508117676,
        -0.6569209694862366,
        0.603117048740387,
        0.15292958915233612,
        -0.2819007635116577,
        0.11047608405351639,
        0.17650644481182098,
        -0.016426468268036842,
        0.045448604971170425,
        -0.2564803659915924,
        0.317345529794693,
        0.18071140348911285,
        -0.47278857231140137,
        -0.24576042592525482,
        -0.3848187029361725,
        -0.44369006156921387,
        -0.4780215322971344,
        -0.09023746848106384,
        -0.3364492654800415,
        -0.2138514667749405,
        -0.34736546874046326,
        -0.528835117816925,
        0.45900964736938477,
        0.20798441767692566,
        -0.33211371302604675,
        0.018102997913956642,
        0.20009584724903107,
        -0.2576357424259186,
        -0.4112606644630432,
        0.3184215724468231,
        0.1492103785276413,
        0.584046483039856,
        -0.30303236842155457,
        0.42418181896209717,
        -0.21502600610256195,
        -0.00721459137275815,
        -0.14945942163467407,
        -0.20048034191131592,
        0.38262298703193665,
        0.0527033694088459,
        -0.04928967356681824,
        0.15912102162837982,
        -0.2041606307029724,
        -0.13478922843933105,
        0.3126193881034851,
        -0.20173192024230957,
        0.0839071050286293,
        -0.12583772838115692,
        0.1783243715763092,
        0.02494162693619728,
        -0.042635478079319,
        -0.30251365900039673,
        -0.284028559923172,
        0.030278395861387253,
        0.08186551928520203,
        0.15379014611244202,
        -0.2711643874645233,
        -0.13539355993270874,
        -0.2970004975795746,
        0.15274056792259216,
        0.07367291301488876,
        -0.01944522187113762,
        -0.19080695509910583,
        -0.11324277520179749,
        -0.0021153332199901342,
        0.08993465453386307,
        -0.07030931860208511,
        0.1777038425207138,
        -0.24799808859825134,
        0.3132191002368927,
        0.30170753598213196,
        0.2913934290409088,
        0.1665562093257904,
        0.3766292631626129,
        -0.0724392905831337,
        0.16895230114459991,
        0.24178312718868256,
        -0.1071719080209732,
        0.10211503505706787,
        0.4313996136188507,
        0.38373059034347534,
        -0.0802837386727333,
        -0.14023958146572113,
        -0.09038572758436203,
        0.2712194323539734,
        0.5925812125205994,
        -0.35228070616722107,
        0.20435675978660583,
        0.3146800994873047,
        -0.028326602652668953,
        0.09688349813222885,
        0.1642731875181198,
        -0.12169310450553894,
        -0.3105376064777374,
        0.02382509782910347,
        -0.42114636301994324,
        0.3446155786514282,
        0.5070806741714478,
        -0.2897782027721405,
        -0.3084554076194763,
        -0.0005014170310460031,
        0.3588396906852722,
        0.19515877962112427,
        0.07617498189210892,
        0.23690640926361084,
        0.24065175652503967,
        -0.11001472920179367,
        -0.15435859560966492,
        0.011451004073023796,
        0.18079549074172974,
        0.4543444812297821,
        0.33388739824295044,
        0.005154977086931467,
        -0.09110268205404282,
        -0.07620055228471756,
        -0.20878185331821442,
        -0.10828565806150436,
        0.11107207834720612,
        -0.29374879598617554,
        -0.05800327658653259,
        -0.20181109011173248,
        0.06334343552589417,
        -0.09293405711650848,
        0.44573450088500977,
        0.2209112048149109,
        0.09425502270460129,
        0.15256711840629578,
        -0.2043624371290207,
        -0.0781080424785614,
        0.03557746112346649,
        -0.05221349373459816,
        0.17279697954654694,
        0.25005945563316345,
        -0.15143604576587677,
        -0.12109716981649399,
        -0.05594787746667862,
        -0.09142692387104034,
        -0.05839945003390312,
        0.19060783088207245,
        0.057022400200366974,
        -0.20547764003276825,
        0.2216659039258957,
        -0.006410388741642237,
        -0.2614292800426483,
        0.14978928864002228,
        0.1444683074951172,
        0.001369938370771706,
        -0.09108401089906693,
        0.18793442845344543,
        -0.18490904569625854,
        -0.16038161516189575,
        0.08832314610481262,
        -0.17079393565654755,
        0.014722704887390137,
        0.2875698208808899,
        -0.1438247710466385,
        -0.21577198803424835,
        0.20629596710205078,
        -0.2503092885017395,
        0.05114063620567322,
        0.2099134773015976,
        0.20154651999473572,
        0.15932519733905792,
        -0.006178639363497496,
        0.07319778949022293,
        0.024596944451332092,
        0.1887475848197937,
        0.05340244248509407,
        -0.23616299033164978,
        -0.09800245612859726,
        -0.08514747023582458,
        -0.041830338537693024,
        0.11533661186695099,
        0.160429909825325,
        0.06449931859970093,
        -0.29689672589302063,
        -0.08441263437271118,
        -0.022706611081957817,
        0.13260206580162048,
        0.22069835662841797,
        -0.20597989857196808,
        -0.0321415513753891,
        -0.31055107712745667,
        0.16902945935726166,
        0.2605891227722168,
        -0.12525177001953125,
        -0.25881919264793396,
        0.1565403789281845,
        0.092673160135746,
        -0.11845578998327255,
        -0.22872714698314667,
        0.2044493854045868,
        0.09207156300544739,
        0.09336045384407043,
        0.2725769281387329,
        0.20298543572425842,
        0.08268057554960251,
        -0.05648999288678169,
        0.23553012311458588,
        -0.2584516704082489,
        0.21779057383537292,
        -0.2444213181734085,
        -0.13086003065109253,
        0.3072660565376282,
        0.012087734416127205,
        -0.20897530019283295,
        -0.09115077555179596,
        0.2633899748325348,
        -0.29311901330947876,
        0.018423421308398247,
        0.12548522651195526,
        -0.03760230168700218,
        -0.10933452844619751,
        0.226742222905159,
        -0.26091739535331726,
        -0.11410394310951233,
        -0.2469901740550995,
        -0.287752240896225,
        -0.15760385990142822,
        -0.28958049416542053,
        -0.15857897698879242,
        -0.013956201262772083,
        -0.1570286750793457,
        0.05055403336882591,
        -0.1947622299194336,
        0.028482360765337944,
        -0.24279151856899261,
        0.19166508316993713,
        -0.19890406727790833,
        0.17306259274482727,
        -0.0870983824133873,
        -0.11205034703016281,
        -0.310555636882782,
        0.21109870076179504,
        0.10477357357740402,
        -0.0912800282239914,
        0.14847366511821747,
        0.051362913101911545,
        0.21663017570972443,
        -0.31250590085983276,
        0.006723333150148392,
        -0.26744329929351807,
        -0.02161785587668419,
        -0.005255617666989565,
        0.031310006976127625,
        -0.09076665341854095,
        0.3427952527999878,
        0.2971155047416687,
        0.0560833141207695,
        -0.1271214634180069,
        0.15011996030807495,
        -0.17346352338790894,
        0.19003698229789734,
        -0.20840393006801605,
        0.02196115255355835,
        0.2855367660522461,
        -0.25503847002983093,
        0.09783697128295898,
        -0.11657918989658356,
        0.08095140755176544,
        -0.29140111804008484,
        -0.3030785024166107,
        0.06787162274122238,
        -0.22588635981082916,
        0.0019300804706290364,
        -0.08984125405550003,
        0.30309584736824036,
        0.035963259637355804,
        -0.21328158676624298,
        -0.3034186065196991,
        0.031018078327178955,
        -0.07390690594911575,
        0.00021608747192658484,
        -0.18044942617416382,
        -0.28248167037963867,
        -0.22086821496486664,
        -0.27508050203323364,
        0.09004592895507812,
        0.2643333077430725,
        -0.20258022844791412,
        -0.26331502199172974,
        -0.27933478355407715,
        0.24473679065704346,
        0.12012103199958801,
        0.17511507868766785,
        -0.018022065982222557,
        0.22214026749134064,
        0.016455499455332756,
        0.2344634234905243,
        0.17668896913528442,
        0.15023989975452423,
        0.26351162791252136,
        0.06521434336900711,
        -0.28164345026016235,
        -0.15544867515563965,
        -0.04973980411887169,
        0.20756694674491882,
        -0.09309257566928864,
        -0.05728417634963989,
        0.14317858219146729,
        0.07326922565698624,
        0.054831527173519135,
        0.14570316672325134,
        -0.09308890998363495,
        0.2334122508764267,
        -0.23373602330684662,
        -0.24890096485614777,
        -0.02993173711001873,
        -0.25747644901275635,
        0.34975674748420715,
        0.13858383893966675,
        -0.09909514337778091,
        0.11394280195236206,
        0.2627125680446625,
        0.26209601759910583,
        -0.2002372443675995,
        0.2761215567588806,
        -0.30192798376083374,
        0.28266850113868713,
        -0.09239603579044342,
        0.3225390315055847,
        -0.03105444833636284,
        0.15779589116573334,
        -0.12727130949497223,
        0.21070852875709534,
        -0.047446414828300476,
        -0.11669382452964783,
        0.17848537862300873,
        0.307367742061615,
        0.26536670327186584,
        -0.19908535480499268,
        -0.10045649111270905,
        0.30167004466056824,
        -0.049632925540208817,
        -0.20244379341602325,
        0.010959988459944725,
        -0.21724183857440948,
        0.12832196056842804,
        -0.09495440125465393,
        0.07502751797437668,
        -0.2506868839263916,
        0.32532232999801636,
        0.20581020414829254,
        -0.08727023005485535,
        -0.05622921884059906,
        -0.14963172376155853,
        0.04170240834355354,
        0.27562251687049866,
        -0.2091285139322281,
        -0.2153932750225067,
        -0.08421618491411209,
        0.22722162306308746,
        0.028266044333577156,
        -0.29449599981307983,
        0.22605976462364197,
        -0.15042637288570404,
        -0.19295291602611542,
        -0.2673152685165405,
        -0.16468967497348785,
        0.3082534372806549,
        0.12092527002096176,
        -0.0580306351184845,
        0.029438331723213196,
        -0.25219962000846863,
        0.09571914374828339,
        -0.13652266561985016,
        0.07491330057382584,
        -0.16270701587200165,
        -0.2697482705116272,
        -0.061669379472732544,
        -0.2975546717643738,
        0.24554204940795898,
        0.02993745729327202,
        -0.3932860195636749,
        0.3313593864440918,
        -0.05681727081537247,
        0.10436435788869858,
        -0.11799894273281097,
        0.21650749444961548,
        -0.2781428396701813,
        -0.2529706656932831,
        0.24582774937152863,
        0.18952712416648865,
        0.5198944211006165,
        -0.40681448578834534,
        0.321158230304718,
        -0.27009135484695435,
        0.039539873600006104,
        -0.031829603016376495,
        -0.08047949522733688,
        0.07153385877609253,
        -0.28041350841522217,
        0.25488653779029846,
        0.18488435447216034,
        0.2167862504720688,
        -0.21104100346565247,
        0.10046446323394775,
        -0.05757101997733116,
        -0.028722258284687996,
        0.09820865094661713,
        0.2032206505537033,
        -0.15684467554092407,
        0.007145549636334181,
        0.05058521777391434,
        -0.062485724687576294,
        0.3882892429828644,
        -0.06154315173625946,
        -0.20202894508838654,
        -0.2513953149318695,
        0.2703159749507904,
        0.03716111555695534,
        -0.19936294853687286,
        0.3028343617916107,
        -0.05826042219996452,
        0.2673512101173401,
        -0.3331276476383209,
        0.2455333173274994,
        0.23340390622615814,
        0.07055484503507614,
        -0.04607461765408516,
        -0.29399818181991577,
        -0.13632097840309143,
        0.2616668939590454,
        0.19952216744422913,
        -0.2749713063240051,
        -0.18956437706947327,
        -0.08826299756765366,
        -0.24120423197746277,
        0.24149298667907715,
        -0.012369425036013126,
        0.1443300098180771,
        -0.09460005909204483,
        0.009358192794024944,
        0.08272571861743927,
        -0.18183884024620056,
        -0.023463668301701546,
        0.08408696204423904,
        -0.19534507393836975,
        -0.22120794653892517,
        0.21009567379951477,
        -0.13675828278064728,
        0.26786118745803833,
        0.279107928276062,
        0.21399958431720734,
        -0.060004979372024536,
        0.2505589425563812,
        0.008194167166948318,
        0.13108126819133759,
        -0.17675375938415527,
        -0.12349255383014679,
        0.021163851022720337,
        0.027462337166070938,
        0.008480875752866268,
        0.1098250299692154,
        -0.2269265055656433,
        0.03827782720327377,
        0.11334852129220963,
        0.22511422634124756,
        0.21031387150287628,
        -0.25089192390441895,
        0.1389351189136505,
        0.1692994385957718,
        0.09373530745506287,
        0.007654442451894283,
        0.2311447113752365,
        -0.18956097960472107,
        -0.21558822691440582,
        -0.04879414290189743,
        -0.3001297414302826,
        -0.18360620737075806,
        -0.12460187822580338,
        -0.04348299279808998,
        0.00706837885081768,
        -0.11279261112213135,
        0.09017433971166611,
        0.27012932300567627,
        -0.12289607524871826,
        0.0913635790348053,
        0.14237625896930695,
        -0.19819998741149902,
        -0.02754470892250538,
        -0.15720340609550476,
        -0.10729574412107468,
        -0.23737722635269165,
        -0.2045399397611618,
        -0.15769103169441223,
        -0.28408917784690857,
        0.06480277329683304,
        0.26245155930519104,
        0.09158483147621155,
        0.24351787567138672,
        -0.16421803832054138,
        -0.2553350031375885,
        -0.28631705045700073,
        0.08470113575458527,
        -0.11272109299898148,
        0.13139216601848602,
        -0.20942461490631104,
        0.036666687577962875,
        0.14509926736354828,
        -0.25627565383911133,
        -0.0889689177274704,
        -0.01261137705296278,
        0.0991952046751976,
        -0.0004753883695229888,
        0.2448854297399521,
        0.04964013025164604,
        0.016454441472887993,
        -0.1319972425699234,
        -0.10804276168346405,
        -0.0582929402589798,
        0.2603861391544342,
        -0.17333358526229858,
        0.061307888478040695,
        -0.2223084568977356,
        0.21728931367397308,
        -0.21654213964939117,
        0.3119250535964966,
        -0.22181929647922516,
        0.1718384176492691,
        -0.14555582404136658,
        -0.1382819563150406,
        0.21857012808322906,
        0.10503169894218445,
        0.12418236583471298,
        0.1551048457622528,
        0.11587730795145035,
        -0.2168552428483963,
        -0.10322471708059311,
        0.13275748491287231,
        -0.1813652068376541,
        0.25367963314056396,
        -0.08690258115530014,
        0.1629214882850647,
        -0.16285614669322968,
        -0.2833244502544403,
        -0.26681268215179443,
        -0.150443434715271,
        0.021631920710206032,
        0.2523384690284729,
        -0.23838289082050323,
        -0.013866324909031391,
        0.007118741516023874,
        0.04496273770928383,
        0.23787935078144073,
        -0.1589769572019577,
        0.4898718595504761,
        0.09379752725362778,
        -0.27088603377342224,
        -0.16983211040496826,
        0.2945014536380768,
        -0.032166723161935806,
        0.30181172490119934,
        -0.20872527360916138,
        0.18749533593654633,
        -0.16637635231018066,
        -0.1361776441335678,
        0.0280289389193058,
        -0.4304681718349457,
        -0.3896180987358093,
        -0.36728253960609436,
        -0.03655584901571274,
        0.2709883451461792,
        0.3394349217414856,
        -0.23942610621452332,
        -0.14494816958904266,
        0.37053391337394714,
        0.506421685218811,
        -0.25331172347068787,
        -0.13853372633457184,
        -0.07149266451597214,
        -0.4182976186275482,
        0.03226105123758316,
        0.2565593421459198,
        0.15291647613048553,
        0.057355236262083054,
        0.06398417055606842,
        0.09159807860851288,
        0.1665080338716507,
        -0.046455442905426025,
        0.0668005645275116,
        0.24010612070560455,
        -0.04952136427164078,
        0.24403667449951172,
        -0.26173335313796997,
        -0.04149588569998741,
        -0.2907242476940155,
        0.14456354081630707,
        -0.01612546667456627,
        0.21009834110736847,
        -0.24011965095996857,
        0.17760933935642242,
        0.13869430124759674,
        0.1650484800338745,
        0.25812146067619324,
        -0.27076101303100586,
        0.16241173446178436,
        -0.07902036607265472,
        0.11072178184986115,
        0.31380805373191833,
        0.1119861751794815,
        -0.117377370595932,
        0.24950359761714935,
        -0.0983298122882843,
        0.2956097722053528,
        0.10859431326389313,
        -0.06163772568106651,
        -0.12830080091953278,
        0.22861824929714203,
        0.10661610215902328,
        0.05000556632876396,
        0.07261177897453308,
        0.014316719025373459,
        0.27145689725875854,
        -0.14864249527454376,
        0.15924124419689178,
        0.26790380477905273,
        0.17977817356586456,
        0.025535304099321365,
        0.23121219873428345,
        0.1887858510017395,
        0.14189469814300537,
        -0.06831227242946625,
        -0.23913373053073883,
        -0.09247324615716934,
        0.16412712633609772,
        -0.00853203609585762,
        0.12158752977848053,
        0.2609405517578125,
        -0.16428188979625702,
        -0.2397608906030655,
        0.02822822891175747,
        0.1353396475315094,
        -0.09119863063097,
        0.28033900260925293,
        -0.011258083395659924,
        0.1084151566028595,
        0.19824403524398804,
        -0.1566019505262375,
        -0.18390913307666779,
        0.14579719305038452,
        -0.2065444141626358,
        -0.24388079345226288,
        0.004820977803319693,
        0.1819126307964325,
        -0.015667514875531197,
        0.16502322256565094,
        0.22019928693771362,
        -0.1276027262210846,
        0.22826683521270752,
        0.026602689176797867,
        -0.12747317552566528,
        0.031230177730321884,
        0.11275563389062881,
        0.24992533028125763,
        0.04643528535962105,
        0.01337609626352787,
        -0.23392140865325928,
        0.12245628982782364,
        0.18018899857997894,
        0.01447456143796444,
        0.34482812881469727,
        0.04429221898317337,
        0.2632225751876831,
        -0.21794383227825165,
        -0.10681291669607162,
        -0.1970311403274536,
        -0.21544522047042847,
        -0.08832484483718872,
        0.14527036249637604,
        0.270196795463562,
        -0.2966950237751007,
        -0.20752035081386566,
        -0.123446024954319,
        0.04529527947306633,
        -0.24776196479797363,
        0.2492540031671524,
        0.18931850790977478,
        0.18154393136501312,
        -0.042839415371418,
        0.28644537925720215,
        -0.2987011969089508,
        0.16519281268119812,
        0.07517684996128082,
        0.12451503425836563,
        -0.014416594058275223,
        0.03720477595925331,
        -0.041346654295921326,
        -0.2994365990161896,
        0.10470669716596603,
        0.20394288003444672,
        0.21454520523548126,
        -0.16698098182678223,
        -0.28531473875045776,
        0.5176868438720703,
        0.38725996017456055,
        0.21850326657295227,
        -0.19243226945400238,
        -0.22518523037433624,
        0.016895057633519173,
        0.07611463963985443,
        0.31121838092803955,
        0.10084553062915802,
        0.12571708858013153,
        -0.2843906283378601,
        0.19439902901649475,
        -0.14933940768241882,
        -0.2358946055173874,
        0.12773415446281433,
        0.09688366949558258,
        -0.20839570462703705,
        0.07772507518529892,
        -0.14694856107234955,
        0.16895325481891632,
        -0.01166854053735733,
        0.12254764884710312,
        -0.008357792161405087,
        0.28313368558883667,
        0.07154911756515503,
        0.07010002434253693,
        0.2661437392234802,
        0.2476356476545334,
        -0.14684011042118073,
        0.07017960399389267,
        0.29654762148857117,
        -0.2594902813434601,
        0.3340138792991638,
        -0.06628867238759995,
        0.12099678814411163,
        -0.22785678505897522,
        0.07792334258556366,
        -0.2541425824165344,
        0.28702840209007263,
        0.2630755603313446,
        0.2504139840602875,
        0.2378968745470047,
        -0.11815422028303146,
        0.212921604514122,
        -0.027474312111735344,
        0.17901547253131866,
        -0.1825622022151947,
        -0.16204588115215302,
        -0.11972612887620926,
        -0.201376810669899,
        0.041975006461143494,
        -0.2709278166294098,
        0.1968296617269516,
        0.10341787338256836,
        -0.10028156638145447,
        -0.09391146898269653,
        -0.08033901453018188,
        -0.011494693346321583,
        -0.19556264579296112,
        -0.18412305414676666,
        -0.11875230818986893,
        -0.28847548365592957,
        -0.2659282088279724,
        0.23533205687999725,
        0.2839602828025818,
        0.18120276927947998,
        0.2048623263835907,
        0.22013258934020996,
        -0.2687928080558777,
        0.005915683228522539,
        -0.09849024564027786,
        0.19226478040218353,
        0.0975525826215744,
        -0.14980696141719818,
        0.10700841248035431,
        0.09507016837596893,
        -0.10667379945516586,
        -0.29417628049850464,
        0.055736519396305084,
        0.11794253438711166,
        -0.2370774894952774,
        -0.16223636269569397,
        -0.05793678015470505,
        0.12196314334869385,
        -0.23816773295402527,
        0.26626840233802795,
        -0.11849640309810638,
        -0.13922683894634247,
        -0.15528139472007751,
        0.10710573196411133,
        -0.026017839089035988,
        0.21676068007946014,
        0.14715787768363953,
        0.07441858947277069,
        0.039145711809396744,
        0.029899349436163902,
        -0.1777745485305786,
        -0.2606184780597687,
        0.275513619184494,
        0.05561443790793419,
        0.2933458387851715,
        0.021810363978147507,
        -0.11135783046483994,
        -0.2572634220123291,
        0.1169792115688324,
        0.14763525128364563,
        -0.13951373100280762,
        0.3507228493690491,
        -0.21574753522872925,
        -0.08715054392814636,
        -0.16273820400238037,
        0.2894305884838104,
        0.06169721856713295,
        0.07781479507684708,
        -0.056397780776023865,
        0.21831607818603516,
        0.11504945904016495,
        -0.2595495879650116,
        0.07798762619495392,
        -0.28216391801834106,
        0.29497048258781433,
        0.2646026611328125,
        -0.15086320042610168,
        -0.10149909555912018,
        0.2579512596130371,
        -0.21115581691265106,
        -0.19862353801727295,
        0.16645082831382751,
        -0.12601017951965332,
        0.07550791651010513,
        -0.21312840282917023,
        0.16573277115821838,
        0.17448526620864868,
        0.21434734761714935,
        0.2769361138343811,
        -0.32998135685920715,
        0.007428212556988001,
        -0.007728688884526491,
        0.20974180102348328
      ]
    },
    {
      "activation": "sigmoid",
      "architecture": "dense",
      "bias": [
        0.42534559965133667
      ],
      "weights": [
        -0.7260874509811401,
        -0.6067864298820496,
        0.28243061900138855,
        0.6153631806373596,
        -0.13650698959827423,
        -0.6454368829727173,
        1.6150331497192383,
        -0.6324952244758606,
        -0.9664904475212097,
        -0.7896819114685059,
        -0.022637462243437767,
        -0.22643765807151794,
        0.3335004150867462,
        0.33695188164711,
        0.08476661145687103,
        -0.3161391019821167,
        -0.09136956930160522,
        0.9234268069267273,
        -0.4798038601875305,
        -0.2851845324039459,
        0.23905910551548004,
        -0.35872069001197815,
        0.07091403752565384,
        1.074076771736145,
        0.2514469027519226,
        -0.1631288379430771,
        -0.21707910299301147,
        0.7164528369903564,
        0.22591456770896912,
        0.2685408890247345,
        0.16465450823307037,
        -0.618266761302948
      ]
    }
  ],
  "nodes": [
    {
      "layer_index": 0,
      "sources": [
        4
      ],
      "type": "feed_forward"
    },
    {
      "layer_index": 1,
      "sources": [
        0
      ],
      "type": "feed_forward"
    },
    {
      "layer_index": 2,
      "sources": [
        1
      ],
      "type": "feed_forward"
    },
    {
      "layer_index": 3,
      "sources": [
        2
      ],
      "type": "feed_forward"
    },
    {
      "size": 6,
      "sources": [
        0
      ],
      "type": "input"
    }
  ],
  "outputs": {
    "output_layer": {
      "labels": [
        "sig_prob"
      ],
      "node_index": 3
    }
  }
}
