{
  "input_sequences": [],
  "inputs": [
    {
      "name": "input_layer",
      "variables": [
        {
          "name": "DRTauTau",
          "offset": -1.16361398,
          "scale": 1.23546575
        },
        {
          "name": "dRBB",
          "offset": -2.04561269,
          "scale": 0.55828601
        },
        {
          "name": "mMMC",
          "offset": -95.764431,
          "scale": 0.03140087
        },
        {
          "name": "mBB",
          "offset": -135.15391541,
          "scale": 0.00699353
        },
        {
          "name": "mHH",
          "offset": -486.68202209,
          "scale": 0.0031686
        },
        {
          "name": "mass",
          "offset": -251.0,
          "scale": 0.001335113485
        }
      ]
    }
  ],
  "layers": [
    {
      "activation": "rectified",
      "architecture": "dense",
      "bias": [
        0.5533546805381775,
        0.10462186485528946,
        -0.001173304975964129,
        -0.6178492903709412,
        -0.6526265144348145,
        0.5569750666618347,
        0.2399243712425232,
        0.07942913472652435,
        -1.9211623668670654,
        -1.233585000038147,
        -1.021640419960022,
        -0.09327283501625061,
        -0.018781663849949837,
        -0.6016843318939209,
        0.9305956363677979,
        -1.9529907703399658,
        -0.23946847021579742,
        0.6348655819892883,
        0.4968486428260803,
        -0.8915119171142578,
        -0.276113361120224,
        0.8620809316635132,
        -0.715878963470459,
        -1.2424477338790894,
        0.8935220241546631,
        -0.0034756206441670656,
        0.21170489490032196,
        -0.808900773525238,
        2.143770694732666,
        -0.9936705827713013,
        -0.714576244354248,
        -1.229964256286621
      ],
      "weights": [
        -0.24133755266666412,
        -0.8238919377326965,
        -0.2762913107872009,
        0.5299612879753113,
        -0.770285964012146,
        -0.8953862190246582,
        -0.9847019910812378,
        -0.6054908633232117,
        0.11299668252468109,
        -0.3319453001022339,
        -0.8046976327896118,
        -0.6268888115882874,
        0.2840922772884369,
        -0.335381418466568,
        -0.9397284984588623,
        -0.0196524690836668,
        -0.4813184142112732,
        1.0668843984603882,
        -0.12324099987745285,
        0.18336379528045654,
        -0.027104508131742477,
        2.6447811126708984,
        -1.3266725540161133,
        3.1294150352478027,
        -0.042484890669584274,
        -0.30089491605758667,
        0.06847502291202545,
        -0.09684158861637115,
        -1.4772123098373413,
        3.7350471019744873,
        -0.09286727756261826,
        -0.057414695620536804,
        0.010408904403448105,
        2.516477346420288,
        0.5110538601875305,
        -1.3932671546936035,
        -0.7148550152778625,
        -0.46372145414352417,
        -0.10434944927692413,
        0.5703998804092407,
        -1.1630277633666992,
        -0.8880785703659058,
        0.4397493302822113,
        -0.8275218605995178,
        0.12298991531133652,
        1.1825944185256958,
        0.8087859749794006,
        0.8237674236297607,
        0.14717812836170197,
        -0.3422008752822876,
        0.01962854713201523,
        -0.15597359836101532,
        -2.895477771759033,
        6.16886043548584,
        0.3534044921398163,
        0.5986753702163696,
        0.18938346207141876,
        0.3248246908187866,
        -1.1990954875946045,
        -0.1688009798526764,
        0.21414268016815186,
        -1.1377267837524414,
        -0.02943534217774868,
        -3.073253870010376,
        0.054795362055301666,
        -0.6361703276634216,
        -1.7838084697723389,
        0.650253176689148,
        0.09777911752462387,
        0.3995162546634674,
        0.35175830125808716,
        0.6782170534133911,
        0.33083921670913696,
        -1.450735330581665,
        0.05769139900803566,
        -0.4575299918651581,
        0.6829054951667786,
        -0.8815964460372925,
        0.29521307349205017,
        -0.6649932265281677,
        0.200138121843338,
        1.0667943954467773,
        -0.09716043621301651,
        -0.6514882445335388,
        0.21143314242362976,
        0.047589290887117386,
        0.02174748294055462,
        0.13213039934635162,
        1.1912797689437866,
        -4.348846912384033,
        0.039411116391420364,
        0.16799050569534302,
        0.030256401747465134,
        -0.6879356503486633,
        -2.996683120727539,
        5.822668075561523,
        -0.24533097445964813,
        0.3359368145465851,
        0.19011500477790833,
        -1.2410122156143188,
        -0.5252126455307007,
        1.9090546369552612,
        -0.22108280658721924,
        -0.4394240975379944,
        0.05567697063088417,
        0.1683872789144516,
        -0.900697648525238,
        -4.707742214202881,
        -0.47568637132644653,
        -0.20713840425014496,
        -1.272475004196167,
        0.2589106261730194,
        0.27393826842308044,
        -0.13053594529628754,
        0.3998458981513977,
        0.04904333874583244,
        -0.22855506837368011,
        -0.04536401852965355,
        -1.3271130323410034,
        1.6274789571762085,
        -0.5882800817489624,
        -0.3255785405635834,
        0.32795536518096924,
        0.10814664512872696,
        -0.07925185561180115,
        0.6855894923210144,
        0.08305180072784424,
        0.8895369172096252,
        -1.2390562295913696,
        0.013370565138757229,
        1.1188279390335083,
        -0.39826804399490356,
        0.6968931555747986,
        0.13502570986747742,
        0.4715564548969269,
        0.967568576335907,
        1.6636953353881836,
        0.5526286363601685,
        0.10192009806632996,
        -0.49013951420783997,
        1.1925655603408813,
        0.4116840064525604,
        0.3940456211566925,
        -1.3465197086334229,
        -1.3610575199127197,
        -0.5127789974212646,
        0.32000967860221863,
        1.0045554637908936,
        0.15283972024917603,
        0.5886779427528381,
        -0.3336990475654602,
        -0.49812015891075134,
        0.18371297419071198,
        0.855029284954071,
        0.7560727596282959,
        0.8841772675514221,
        0.49109718203544617,
        -0.670805037021637,
        -0.48447996377944946,
        0.5678331255912781,
        0.5859279632568359,
        -1.1319729089736938,
        0.00833225529640913,
        0.24100714921951294,
        0.5629928112030029,
        -0.033440399914979935,
        0.010045860894024372,
        0.45622894167900085,
        0.1378883719444275,
        -0.26442354917526245,
        -0.022992555052042007,
        -0.5094332695007324,
        2.304093837738037,
        -7.163731575012207,
        0.22601306438446045,
        -0.697228729724884,
        -0.03428368270397186,
        -1.9936809539794922,
        0.7366825342178345,
        0.3190991282463074,
        0.31524452567100525,
        0.17635326087474823,
        -0.23200011253356934,
        -0.34299641847610474,
        -0.3113108277320862,
        -0.49485552310943604,
        -0.02702685445547104,
        -0.6393876075744629,
        0.05800794064998627,
        0.2159753441810608,
        -2.906135320663452,
        1.1857627630233765
      ]
    },
    {
      "activation": "rectified",
      "architecture": "dense",
      "bias": [
        -0.31340453028678894,
        -0.45755723118782043,
        -0.4348323941230774,
        -0.6855676770210266,
        -0.2588183581829071,
        -0.05806411802768707,
        0.0021849393378943205,
        0.21746213734149933,
        -0.11540763080120087,
        -0.1029585599899292,
        -0.06334792822599411,
        -0.33767279982566833,
        1.4422670602798462,
        -0.35971054434776306,
        0.6604493856430054,
        -1.0892144441604614,
        0.05373391881585121,
        -0.2860676944255829,
        0.009166764095425606,
        -0.575707197189331,
        -0.04869174584746361,
        -0.7296590209007263,
        0.6122254729270935,
        0.49753499031066895,
        -0.15245436131954193,
        0.22949399054050446,
        -0.09135439991950989,
        0.5342175364494324,
        -0.1085481196641922,
        -0.7545775175094604,
        0.16691574454307556,
        -0.780627429485321
      ],
      "weights": [
        0.0967348963022232,
        0.6450678110122681,
        -0.0797044113278389,
        -0.15304028987884521,
        -0.1764492690563202,
        -0.07335319370031357,
        0.5072466135025024,
        -0.4475061893463135,
        -0.5238922834396362,
        0.08925168216228485,
        -0.090361587703228,
        0.7779302000999451,
        -0.18702594935894012,
        0.38361647725105286,
        0.31410646438598633,
        -0.2965771555900574,
        -0.24197180569171906,
        0.6777442097663879,
        0.3602572977542877,
        -0.3041040003299713,
        0.4421158730983734,
        0.36731594800949097,
        -0.7619021534919739,
        0.19183309376239777,
        0.4641302824020386,
        -0.3073452115058899,
        -0.26736417412757874,
        -0.38242048025131226,
        0.6461487412452698,
        -0.5978773236274719,
        -0.22023123502731323,
        -0.022793475538492203,
        0.03411862999200821,
        0.1354631781578064,
        -0.10230894386768341,
        -0.27092668414115906,
        -0.2572508454322815,
        -0.4304191470146179,
        -0.3321057856082916,
        -0.660473644733429,
        -0.01947205886244774,
        0.4092261791229248,
        0.15364891290664673,
        -0.22949214279651642,
        -0.3119199275970459,
        -0.12277444452047348,
        0.1784343272447586,
        0.1938907504081726,
        -0.11626741290092468,
        0.3368771970272064,
        0.15003937482833862,
        0.37652596831321716,
        -0.3427816331386566,
        0.15060922503471375,
        -0.459004670381546,
        0.1669725626707077,
        -0.07744651287794113,
        -0.14638066291809082,
        -0.2109733521938324,
        0.23221082985401154,
        0.142070010304451,
        -0.1465737670660019,
        0.17989639937877655,
        0.36583152413368225,
        0.10163475573062897,
        0.3984057903289795,
        -0.12362885475158691,
        -0.33783480525016785,
        -0.05881155654788017,
        -0.12522871792316437,
        0.11544785648584366,
        -0.05079295486211777,
        0.23571184277534485,
        -0.42775800824165344,
        -0.3251560926437378,
        0.007166134659200907,
        0.27703872323036194,
        0.10635167360305786,
        0.08099675923585892,
        0.044056959450244904,
        -0.24671322107315063,
        0.07480255514383316,
        0.08175916969776154,
        -0.2651035785675049,
        0.09717412292957306,
        -0.18296688795089722,
        0.23410584032535553,
        0.2566649913787842,
        0.07085862010717392,
        0.10245125740766525,
        0.044306930154561996,
        0.16979363560676575,
        0.028947338461875916,
        -0.40687909722328186,
        0.12083481252193451,
        -0.1289457082748413,
        0.12546859681606293,
        0.24716129899024963,
        -0.04925663024187088,
        -0.1263500452041626,
        0.39087724685668945,
        -0.33100366592407227,
        0.3743010461330414,
        0.028023045510053635,
        0.9462441205978394,
        0.1661377102136612,
        -0.4987039566040039,
        -0.8444739580154419,
        -0.4762813150882721,
        -0.2535627782344818,
        -0.4142204523086548,
        0.797590434551239,
        -0.2570667266845703,
        -0.1174251064658165,
        0.3145829439163208,
        0.4046216309070587,
        0.07869764417409897,
        -0.18742267787456512,
        -0.3027268946170807,
        -0.41374167799949646,
        0.14451119303703308,
        -0.5531222224235535,
        -0.1673741340637207,
        0.05164061486721039,
        -1.3879460096359253,
        -0.21350279450416565,
        -0.06626948714256287,
        0.7315601110458374,
        -0.296345978975296,
        -0.21506153047084808,
        0.13990014791488647,
        -0.0006885353941470385,
        -0.3438390791416168,
        -0.2020200788974762,
        -0.128701850771904,
        -0.32176387310028076,
        0.22750672698020935,
        0.5799158215522766,
        0.39131051301956177,
        -0.2740999460220337,
        -0.08614926785230637,
        -0.3456994295120239,
        0.28374987840652466,
        0.21389533579349518,
        -0.2045900523662567,
        0.5539038181304932,
        0.2690836191177368,
        0.20033182203769684,
        0.13046935200691223,
        0.3832519054412842,
        -0.5900607109069824,
        -0.3679860830307007,
        -0.5478389263153076,
        0.008107158355414867,
        0.007734308484941721,
        0.07964789122343063,
        0.058024995028972626,
        0.5572837591171265,
        0.44513562321662903,
        0.07756422460079193,
        0.2307526022195816,
        0.21470949053764343,
        0.037767890840768814,
        0.2965681850910187,
        -0.5873528122901917,
        0.20794783532619476,
        0.28546273708343506,
        0.3446272015571594,
        -0.3033592700958252,
        -0.4283646047115326,
        0.06352707743644714,
        -0.1792120635509491,
        -0.3241230249404907,
        0.1860952228307724,
        -0.03669095039367676,
        -0.4223339855670929,
        -0.43447989225387573,
        0.23744331300258636,
        0.40246880054473877,
        0.1261887550354004,
        -0.12211652100086212,
        0.23081007599830627,
        0.20351390540599823,
        0.4494127631187439,
        -0.24147126078605652,
        -0.237613245844841,
        0.1897812932729721,
        0.08145619183778763,
        0.5611713528633118,
        -0.4928988814353943,
        0.02532796934247017,
        -0.09307952970266342,
        -0.011381911113858223,
        -0.15925785899162292,
        0.33653873205184937,
        0.20487815141677856,
        -0.056628189980983734,
        0.1726759821176529,
        0.3877270519733429,
        0.10987160354852676,
        0.03622392937541008,
        -0.4603458344936371,
        -0.07478804141283035,
        -0.029880164191126823,
        -0.10179828852415085,
        -0.3515048623085022,
        -0.03560357913374901,
        -0.2237316370010376,
        0.2331005334854126,
        0.10089907050132751,
        0.6793193817138672,
        -0.31278279423713684,
        -0.008162718266248703,
        0.5881769061088562,
        -0.4812261760234833,
        -0.42083099484443665,
        -0.21032936871051788,
        -0.25886738300323486,
        0.24568864703178406,
        0.1427580714225769,
        0.05401681363582611,
        0.2756540775299072,
        0.2134837508201599,
        -0.2814600467681885,
        0.2086545079946518,
        0.11180909723043442,
        -0.16398458182811737,
        -0.914874255657196,
        -0.5148080587387085,
        0.3502192795276642,
        0.10218895971775055,
        -0.2798864245414734,
        -1.1273791790008545,
        -0.00457636546343565,
        0.4247705340385437,
        -0.11833582818508148,
        0.6211036443710327,
        -0.07695992290973663,
        0.9039798974990845,
        -1.2549651861190796,
        0.19614383578300476,
        0.7091652750968933,
        -0.2004271298646927,
        -0.2849732041358948,
        0.2833011746406555,
        -0.11702308803796768,
        0.06291582435369492,
        0.24360673129558563,
        -0.18547964096069336,
        -0.13586652278900146,
        0.2254241406917572,
        -0.12330178916454315,
        1.2157862186431885,
        0.29301127791404724,
        0.16683131456375122,
        -0.5942428708076477,
        0.04903395473957062,
        0.028444422408938408,
        0.13092346489429474,
        -0.2027047723531723,
        -0.15902991592884064,
        0.26134347915649414,
        -0.04733336716890335,
        0.4416223466396332,
        -0.14769895374774933,
        -0.17482870817184448,
        0.04865603521466255,
        0.1629818081855774,
        0.2811245322227478,
        0.09247653931379318,
        0.17820121347904205,
        -0.19280360639095306,
        -0.099513478577137,
        0.0719243586063385,
        0.20741482079029083,
        0.036727424710989,
        -0.12068209052085876,
        -0.17945969104766846,
        -0.15962792932987213,
        0.22732998430728912,
        0.34809982776641846,
        0.056368738412857056,
        -0.07274512946605682,
        -0.11737135797739029,
        -0.08195234090089798,
        0.025384070351719856,
        -0.2881194055080414,
        0.073330357670784,
        -0.08317422866821289,
        -0.15522395074367523,
        -0.27333691716194153,
        -0.16431307792663574,
        -0.3364371657371521,
        0.26924654841423035,
        -0.004769906867295504,
        -0.17672254145145416,
        0.2590053081512451,
        0.06991685181856155,
        0.03799109160900116,
        0.00508742593228817,
        0.18238916993141174,
        0.10856319218873978,
        -0.08960665762424469,
        0.09564900398254395,
        0.20430557429790497,
        -0.21417288482189178,
        -0.022841909900307655,
        -0.24434396624565125,
        -0.09391988813877106,
        -0.04527391493320465,
        -0.24456390738487244,
        0.2129671573638916,
        -0.047303564846515656,
        -0.330533504486084,
        0.27505210041999817,
        0.16823270916938782,
        0.052266061305999756,
        0.3281783163547516,
        0.2574344277381897,
        0.5294065475463867,
        0.002913697389885783,
        0.18594993650913239,
        -0.01770991086959839,
        0.3908674716949463,
        0.052827365696430206,
        0.6381968259811401,
        -0.3096754848957062,
        -0.01713363081216812,
        -0.38235723972320557,
        0.18722303211688995,
        0.10894468426704407,
        -0.1301441490650177,
        -0.31703120470046997,
        0.29174375534057617,
        0.2384975403547287,
        -0.15166068077087402,
        -0.13319993019104004,
        0.034691981971263885,
        0.18133218586444855,
        -0.1973283886909485,
        0.25406017899513245,
        0.1587769091129303,
        0.1925172358751297,
        -0.07568954676389694,
        -0.2122211456298828,
        -0.09424357116222382,
        0.3574318587779999,
        -0.10072749853134155,
        -0.2851920425891876,
        -0.3403572142124176,
        -0.2367149144411087,
        0.09055646508932114,
        0.4271872043609619,
        -0.18801437318325043,
        -0.07665953785181046,
        0.00665294798091054,
        0.15289700031280518,
        -0.13429194688796997,
        -0.20539622008800507,
        0.05058669671416283,
        0.35616758465766907,
        0.37715214490890503,
        0.44208258390426636,
        -0.5282664895057678,
        0.051446087658405304,
        0.4323593080043793,
        -0.031122013926506042,
        0.04213811457157135,
        -0.19244344532489777,
        0.06353086233139038,
        0.2029041200876236,
        0.013812978751957417,
        -0.20185783505439758,
        -0.3114718198776245,
        -0.038333356380462646,
        0.28077811002731323,
        -0.4320397675037384,
        0.029013261198997498,
        -0.35706087946891785,
        0.2731360197067261,
        -0.6964719295501709,
        0.7757807374000549,
        0.060662128031253815,
        0.20891998708248138,
        -0.016145888715982437,
        -0.002587138907983899,
        0.05451567471027374,
        -0.7918476462364197,
        0.3564579486846924,
        -0.5747274160385132,
        0.012849530205130577,
        -0.05762619152665138,
        0.20888163149356842,
        -0.18647567927837372,
        -0.26620233058929443,
        -0.13152149319648743,
        0.028460035100579262,
        -0.11507096141576767,
        -0.37291866540908813,
        -0.3374725580215454,
        -0.057033199816942215,
        -0.05633964017033577,
        0.09612975269556046,
        -0.06893246620893478,
        -0.1854669749736786,
        -0.47501644492149353,
        -0.24147789180278778,
        -0.031157735735177994,
        0.16349676251411438,
        0.1708233803510666,
        -0.0897698774933815,
        -0.18402130901813507,
        -0.5367497801780701,
        -0.08509951829910278,
        0.15223941206932068,
        0.07921875268220901,
        0.3896353542804718,
        -0.17936763167381287,
        0.3818962275981903,
        -0.18047869205474854,
        0.17152921855449677,
        0.04629191756248474,
        0.3601207137107849,
        -0.15857209265232086,
        0.037013761699199677,
        0.32844868302345276,
        -0.24264004826545715,
        -0.39505305886268616,
        -0.30298912525177,
        0.42493996024131775,
        -0.05137839540839195,
        0.06123961880803108,
        -0.4821447730064392,
        0.4009367823600769,
        -0.25571757555007935,
        0.14505428075790405,
        -0.23872339725494385,
        -0.3530476689338684,
        -0.19754339754581451,
        0.1701788604259491,
        0.049131128937006,
        -0.3910980522632599,
        0.22598637640476227,
        -0.14962521195411682,
        -0.1592649668455124,
        0.014419623650610447,
        0.1086430624127388,
        0.7447554469108582,
        0.15105116367340088,
        -0.07257477939128876,
        -0.3556346595287323,
        0.34436625242233276,
        0.1485844850540161,
        0.2441607266664505,
        -0.35749369859695435,
        0.07184404134750366,
        -0.2726549804210663,
        -0.13479630649089813,
        -0.2931731343269348,
        0.113346628844738,
        0.4691980183124542,
        -0.23037731647491455,
        0.022820161655545235,
        0.18247364461421967,
        0.32873666286468506,
        -0.7740799188613892,
        -0.4997916519641876,
        -0.15689049661159515,
        0.12287870049476624,
        -0.2615926265716553,
        -0.34688544273376465,
        -0.9199928045272827,
        0.44236093759536743,
        0.09010910242795944,
        0.19668124616146088,
        -0.473655641078949,
        0.376548171043396,
        0.2924644649028778,
        -0.23319442570209503,
        -0.7023115158081055,
        -0.24422109127044678,
        0.16414770483970642,
        0.3835960328578949,
        0.6560460329055786,
        0.7703608274459839,
        -0.26038339734077454,
        -0.05619834363460541,
        -0.10393817722797394,
        1.0639129877090454,
        0.17375919222831726,
        0.6045624613761902,
        -0.0947282537817955,
        0.11032670736312866,
        0.0691867396235466,
        -0.8074564337730408,
        1.1617320775985718,
        0.9641709923744202,
        -0.5477718114852905,
        0.2726207375526428,
        0.4831547141075134,
        -0.15136101841926575,
        0.09239668399095535,
        -0.1774117797613144,
        -0.10629718750715256,
        -0.07235567271709442,
        -0.1844785064458847,
        -0.5812495350837708,
        0.1535191386938095,
        -0.9816293716430664,
        0.8585889339447021,
        -0.08333433419466019,
        0.5041045546531677,
        -0.28694626688957214,
        0.2469928115606308,
        -0.22681836783885956,
        -0.05755750089883804,
        -0.017458491027355194,
        -0.24899286031723022,
        -0.2706191837787628,
        -0.5199304223060608,
        -0.023462727665901184,
        0.0717865526676178,
        0.3949190378189087,
        -0.1324179470539093,
        -0.4100203514099121,
        0.007035760674625635,
        0.27062445878982544,
        0.26323920488357544,
        0.43476563692092896,
        0.2329762876033783,
        -0.24411006271839142,
        -0.11730855703353882,
        -0.0456119105219841,
        -0.24571964144706726,
        -0.2431776374578476,
        -0.4064207375049591,
        -0.2015923708677292,
        0.12843017280101776,
        -0.2299397736787796,
        -0.08128682523965836,
        -0.03404570370912552,
        0.09543365985155106,
        0.09726158529520035,
        0.1539306938648224,
        0.12687605619430542,
        0.09015758335590363,
        0.41868916153907776,
        0.5416288375854492,
        0.29813244938850403,
        -0.06886337697505951,
        0.1907174289226532,
        0.24441184103488922,
        0.5740445852279663,
        0.31212010979652405,
        0.7711331248283386,
        -0.8292034864425659,
        -0.06376343220472336,
        -0.1635759025812149,
        -0.6344848275184631,
        0.31188517808914185,
        -0.013968780636787415,
        -0.4300171136856079,
        0.44398942589759827,
        0.1679013967514038,
        -0.36828428506851196,
        0.4091050624847412,
        0.434212863445282,
        0.3158623278141022,
        -0.7069340348243713,
        -0.06647484749555588,
        -0.30283430218696594,
        0.13074684143066406,
        -0.7553051114082336,
        0.7074903845787048,
        0.14637622237205505,
        0.20087961852550507,
        -0.10495314002037048,
        0.29118862748146057,
        -0.2024068832397461,
        -0.23923565447330475,
        -0.6095468401908875,
        0.20341655611991882,
        0.1009429544210434,
        0.026887690648436546,
        -0.5324610471725464,
        -0.05499504879117012,
        -0.498532235622406,
        0.04830067604780197,
        -0.3247182369232178,
        -0.2818470895290375,
        0.37648648023605347,
        -0.5386176109313965,
        -0.3143455684185028,
        0.49181678891181946,
        0.261631041765213,
        -0.39136338233947754,
        -0.019435245543718338,
        0.6097694039344788,
        -0.2344188690185547,
        0.048318274319171906,
        0.1576160043478012,
        0.29392412304878235,
        0.1057429164648056,
        0.029116902500391006,
        0.7238546013832092,
        -0.30436187982559204,
        -0.02132153883576393,
        -0.0011313108261674643,
        -0.2770727872848511,
        -0.20137271285057068,
        -0.11264094710350037,
        0.34769514203071594,
        0.07354217767715454,
        -0.10613618046045303,
        -0.2495429813861847,
        0.03914586082100868,
        0.24982334673404694,
        0.33421003818511963,
        0.38703933358192444,
        -0.18299956619739532,
        -0.1317981630563736,
        0.05642236769199371,
        0.14980760216712952,
        0.19248995184898376,
        -0.09221310913562775,
        -0.4413774013519287,
        0.024530136957764626,
        -0.2614988684654236,
        0.0887640118598938,
        0.4760092496871948,
        0.046181656420230865,
        0.3063325583934784,
        -0.23119831085205078,
        -0.25588178634643555,
        0.08853832632303238,
        0.01681082509458065,
        0.04738408327102661,
        0.34123238921165466,
        0.0906434878706932,
        -0.06463546305894852,
        0.5759536623954773,
        0.1787537783384323,
        -0.007814823649823666,
        -0.12182343006134033,
        -0.30898165702819824,
        0.2515331506729126,
        0.2186363786458969,
        -0.38109591603279114,
        -0.03521764650940895,
        -0.17704446613788605,
        -0.1893533319234848,
        0.04486256092786789,
        0.18919141590595245,
        0.1871071308851242,
        0.02349237911403179,
        -0.31927165389060974,
        -0.2278490960597992,
        0.2971111536026001,
        0.263753741979599,
        0.03223080933094025,
        -0.2686564326286316,
        -0.2550850510597229,
        -0.19913527369499207,
        -0.21567218005657196,
        0.0224798321723938,
        -0.4570997655391693,
        0.10072377324104309,
        0.02349535934627056,
        0.23720261454582214,
        0.2989240884780884,
        -0.05413602665066719,
        0.25506454706192017,
        0.19933196902275085,
        0.6913200616836548,
        -0.23499353229999542,
        -0.18056771159172058,
        -0.15778742730617523,
        0.16777200996875763,
        0.5309343338012695,
        -0.5953684449195862,
        -0.21270352602005005,
        -0.27598699927330017,
        -0.026758791878819466,
        0.5050010085105896,
        0.27399682998657227,
        0.02869403176009655,
        0.13685107231140137,
        0.13357490301132202,
        0.08484391868114471,
        0.6338544487953186,
        0.27162396907806396,
        -0.43922290205955505,
        -0.0903785228729248,
        -0.15266773104667664,
        -0.33163484930992126,
        -0.1071571633219719,
        0.42787182331085205,
        -0.2704504132270813,
        0.2718172073364258,
        -0.0009530102252028883,
        0.2426660805940628,
        -0.15690235793590546,
        -0.06740696728229523,
        0.3656918704509735,
        -0.21045862138271332,
        -0.05341167747974396,
        -0.019679810851812363,
        -0.5700162649154663,
        0.15926741063594818,
        -0.4757903218269348,
        -0.3392254114151001,
        -0.05764712020754814,
        -0.12853598594665527,
        -0.2297908067703247,
        -0.035178717225790024,
        0.041491828858852386,
        0.20813676714897156,
        -0.17313720285892487,
        -0.2379569262266159,
        0.12215302884578705,
        0.01270016934722662,
        -0.07501810789108276,
        0.2922362685203552,
        0.14003223180770874,
        -0.1957550346851349,
        -0.33653566241264343,
        0.0022646193392574787,
        -0.210045725107193,
        0.7113053202629089,
        0.44304123520851135,
        0.13261082768440247,
        -0.12881240248680115,
        -0.09334748983383179,
        0.17467771470546722,
        0.04055660218000412,
        0.024760041385889053,
        -0.3331752121448517,
        -0.15099970996379852,
        -0.4340973198413849,
        -0.2873457670211792,
        -0.27610790729522705,
        -0.13873156905174255,
        -0.14595699310302734,
        -0.45125484466552734,
        -0.02451433800160885,
        0.3273146450519562,
        0.1559528261423111,
        -0.22649149596691132,
        -0.6060526967048645,
        -0.025602571666240692,
        0.3123096525669098,
        -0.10247582942247391,
        0.3536204695701599,
        0.2873867452144623,
        0.06101859360933304,
        0.21524426341056824,
        -0.20043885707855225,
        0.009954833425581455,
        -0.4224727153778076,
        -0.36854439973831177,
        0.4721639156341553,
        0.04375036060810089,
        -0.033339716494083405,
        -0.1543111503124237,
        0.27965572476387024,
        0.3175894021987915,
        0.05966868996620178,
        0.10765615850687027,
        0.3573877811431885,
        0.16920089721679688,
        0.17924608290195465,
        0.02935737743973732,
        -0.16405564546585083,
        0.31118109822273254,
        0.21189603209495544,
        -0.4077274799346924,
        -0.3245571255683899,
        0.0454343818128109,
        -0.22420252859592438,
        0.39297130703926086,
        -0.002254313323646784,
        -0.12388584017753601,
        0.14789992570877075,
        0.16574719548225403,
        -0.15594087541103363,
        0.3947726786136627,
        0.018002362921833992,
        -0.3337123990058899,
        -0.19461572170257568,
        0.34795936942100525,
        -0.6123756170272827,
        -0.008036382496356964,
        -0.11414634436368942,
        0.22083662450313568,
        -0.17125406861305237,
        0.11693350970745087,
        -0.33721137046813965,
        -0.3827834129333496,
        -0.30760231614112854,
        0.31208154559135437,
        0.3376642167568207,
        0.09655380249023438,
        -0.3819611072540283,
        0.0938134491443634,
        0.19006429612636566,
        0.06579456478357315,
        -0.11397252231836319,
        -0.21761640906333923,
        -0.18129096925258636,
        -0.09292175620794296,
        -0.08905614912509918,
        0.15722307562828064,
        -0.08351656794548035,
        -0.2708609700202942,
        0.13921202719211578,
        -0.1088658794760704,
        0.09667045623064041,
        0.37292200326919556,
        -0.10609685629606247,
        -0.09905240684747696,
        0.14898009598255157,
        -0.31209659576416016,
        -0.20591996610164642,
        -0.1916072815656662,
        0.38259240984916687,
        0.029052654281258583,
        -0.25529012084007263,
        -0.0717916488647461,
        -0.16713307797908783,
        0.003895064815878868,
        -0.19391505420207977,
        -0.034085020422935486,
        0.059482473880052567,
        -0.21088875830173492,
        0.247512087225914,
        -0.10539377480745316,
        -0.22018292546272278,
        -0.28936144709587097,
        0.25740671157836914,
        0.29037579894065857,
        0.0875953733921051,
        -0.17349764704704285,
        -0.06865090876817703,
        0.1769033521413803,
        -0.0669623538851738,
        -0.1526118665933609,
        -0.16163985431194305,
        0.13253650069236755,
        0.003004638943821192,
        -0.16450564563274384,
        -0.040193572640419006,
        0.23793154954910278,
        -0.053091537207365036,
        -0.3067166209220886,
        -0.29226934909820557,
        -0.14016835391521454,
        -0.293358713388443,
        0.0013274556258693337,
        0.12798228859901428,
        0.05120068043470383,
        -0.018911540508270264,
        -0.24118445813655853,
        0.11692897975444794,
        0.10022055357694626,
        0.4571232795715332,
        0.018801920115947723,
        -0.18770617246627808,
        -0.46598395705223083,
        -0.013323681429028511,
        0.24908696115016937,
        0.24287018179893494,
        0.3435106575489044,
        -0.21284952759742737,
        -0.49276992678642273,
        -0.2563016712665558,
        -0.3200741708278656,
        0.46368348598480225,
        0.37686678767204285,
        -0.19633468985557556,
        -0.42489609122276306,
        0.05838915333151817,
        0.14337629079818726,
        -0.02752840146422386,
        -0.37286895513534546,
        0.16935215890407562,
        -0.02416239120066166,
        -0.2641230523586273,
        -0.028174804523587227,
        0.10355395823717117,
        0.024672454223036766,
        -0.06553342193365097,
        -0.10401000827550888,
        -0.029661405831575394,
        -0.260032057762146,
        -0.34081727266311646,
        -0.011941871605813503,
        0.12344334274530411,
        -0.09953338652849197,
        -0.09110305458307266,
        0.08128609508275986,
        0.1885710507631302,
        0.18727192282676697,
        -0.24703606963157654,
        0.02324606291949749,
        0.1417531818151474,
        -0.08198171854019165,
        0.4362325370311737,
        -0.35503867268562317,
        -0.04248092323541641,
        -0.16498641669750214,
        -0.21106627583503723,
        -0.11266834288835526,
        -0.1458367556333542,
        0.04059275984764099,
        0.23156054317951202,
        0.16165582835674286,
        -0.3567228615283966,
        -0.0007026180974207819,
        0.3290165662765503,
        0.3025115728378296,
        -0.24439840018749237,
        -0.5055195093154907,
        -0.04463161528110504,
        0.3713984787464142,
        -0.08050332218408585,
        0.4075058698654175,
        0.10323168337345123,
        -0.09220343083143234,
        -0.0961940586566925,
        0.07966975122690201,
        -0.0022464951034635305,
        -0.31436651945114136,
        0.20615728199481964,
        -0.6236530542373657,
        0.1309349685907364,
        0.10626355558633804,
        0.22029083967208862,
        0.07062772661447525,
        -0.6822344064712524,
        0.5044685006141663,
        0.3420756757259369,
        -0.0021070961374789476,
        0.0786421000957489,
        0.13558800518512726,
        0.018036987632513046,
        -0.18613649904727936,
        0.4755267798900604,
        -0.21920640766620636,
        -0.09280484169721603,
        0.29978471994400024,
        0.18564942479133606,
        0.35691773891448975,
        -0.07411269098520279,
        -0.017526565119624138,
        0.376872718334198,
        0.28007835149765015,
        -0.35676559805870056,
        -0.17637145519256592,
        0.11989015340805054,
        -0.12741707265377045,
        0.07510154694318771,
        -0.189245343208313,
        -0.07164306193590164,
        0.20610514283180237,
        -0.46005579829216003,
        0.4274821877479553,
        -0.2466631531715393,
        0.2938258945941925,
        -0.9717429280281067,
        0.2019835114479065,
        -0.6191153526306152,
        -0.1663399040699005,
        -0.12185509502887726,
        0.2685914635658264,
        0.6139271855354309,
        -0.8659027814865112,
        -0.42426297068595886,
        0.5294078588485718,
        -0.290454238653183,
        -0.014208137057721615,
        -0.1445360779762268,
        -0.1846572905778885,
        0.08893584460020065,
        -0.1283804327249527,
        0.19356031715869904,
        -0.08112162351608276,
        0.2195638120174408,
        0.12234137952327728,
        0.712124764919281,
        -0.5108356475830078,
        -0.04970280081033707,
        -0.17394816875457764,
        -0.3848281502723694,
        0.21471509337425232,
        -0.514889121055603,
        0.7438091039657593,
        0.20176143944263458,
        -0.19788838922977448,
        -0.33784207701683044,
        -0.2231084257364273,
        0.0721951425075531,
        -0.20132407546043396,
        -0.37590292096138,
        0.4598422944545746,
        0.11917633563280106,
        -0.11849602311849594,
        -0.10535360872745514,
        0.39375725388526917,
        0.5108968019485474,
        -0.4759540557861328,
        -0.700641393661499,
        0.19801095128059387,
        0.2585142254829407,
        -0.5691006779670715,
        0.1132647916674614,
        -0.16789641976356506,
        0.20144489407539368,
        0.3008621037006378,
        0.014544539153575897,
        -0.17041301727294922,
        -0.308371901512146,
        0.10940340906381607,
        0.10361845791339874,
        -0.3877379596233368
      ]
    },
    {
      "activation": "rectified",
      "architecture": "dense",
      "bias": [
        1.0043609142303467,
        -0.11852694302797318,
        -0.16450196504592896,
        0.25710928440093994,
        0.692837655544281,
        -0.1697906106710434,
        -0.5961681604385376,
        -0.15086165070533752,
        0.0851258710026741,
        -0.19344188272953033,
        -0.16504864394664764,
        -0.04955579340457916,
        -0.2633069157600403,
        0.10094212740659714,
        -0.2283962219953537,
        0.19897346198558807,
        0.17024248838424683,
        -0.25005796551704407,
        -0.34088441729545593,
        0.8729612231254578,
        0.5679329633712769,
        -0.10514210909605026,
        1.5953258275985718,
        -0.07988497614860535,
        -0.5447261929512024,
        0.222838893532753,
        0.086619533598423,
        0.130463644862175,
        -0.017558008432388306,
        -0.11912962794303894,
        0.6424253582954407,
        -0.47026821970939636
      ],
      "weights": [
        0.08888345211744308,
        -0.008259275928139687,
        -0.12187971919775009,
        -0.3506467640399933,
        0.40788930654525757,
        -0.21214281022548676,
        -0.43494322896003723,
        -0.7401352524757385,
        0.11693619936704636,
        -0.05004597455263138,
        -0.2225622534751892,
        0.12682148814201355,
        0.15383650362491608,
        0.47823575139045715,
        -0.24987468123435974,
        -0.5307764410972595,
        -0.2639985978603363,
        -0.3338105380535126,
        -0.582840085029602,
        -0.17043273150920868,
        0.04019612818956375,
        0.01946353353559971,
        -0.17173942923545837,
        -0.03082064911723137,
        0.13367609679698944,
        0.24903233349323273,
        0.08097998797893524,
        0.14979873597621918,
        0.021163200959563255,
        -0.49304044246673584,
        -0.12935449182987213,
        -0.1654777228832245,
        0.19617344439029694,
        0.23576723039150238,
        0.13040807843208313,
        -0.26534122228622437,
        0.3889017701148987,
        0.12199786305427551,
        -0.05601663142442703,
        -0.17666922509670258,
        0.10172087699174881,
        0.015064326114952564,
        -0.33437928557395935,
        0.20455427467823029,
        -0.07717403769493103,
        -0.14774015545845032,
        -0.27832889556884766,
        0.08452662080526352,
        0.12382388859987259,
        -0.21667341887950897,
        0.09327386319637299,
        -0.35920450091362,
        -0.1889299899339676,
        0.006753589957952499,
        0.16780737042427063,
        -0.1304980218410492,
        -0.21584637463092804,
        -0.03972300514578819,
        -0.017177630215883255,
        0.2567829489707947,
        0.14646127820014954,
        0.16124746203422546,
        0.09089189767837524,
        -0.16271308064460754,
        -0.014008449390530586,
        0.2945758104324341,
        -0.056401073932647705,
        0.09500890225172043,
        -0.03363928198814392,
        -0.05850521847605705,
        -0.21939240396022797,
        0.09137292951345444,
        -0.2252238690853119,
        -0.2740190029144287,
        -0.23445603251457214,
        -0.3093496263027191,
        -0.15856987237930298,
        -0.02339264564216137,
        0.25926053524017334,
        0.14278815686702728,
        0.21037128567695618,
        -0.3403272032737732,
        -0.19588784873485565,
        0.08045217394828796,
        -0.14693082869052887,
        -0.16121569275856018,
        0.018470225855708122,
        0.17400658130645752,
        0.029196128249168396,
        0.2292526811361313,
        -0.30409637093544006,
        0.10998918116092682,
        -0.27341824769973755,
        -0.03888631612062454,
        0.21376264095306396,
        0.2436252385377884,
        -0.06794944405555725,
        -0.19256772100925446,
        -0.12034346163272858,
        0.40077289938926697,
        -0.1243738979101181,
        0.09172170609235764,
        -0.24874737858772278,
        -0.0774659514427185,
        0.34075844287872314,
        0.3331749439239502,
        -0.10703825205564499,
        0.21755923330783844,
        -0.026375729590654373,
        0.36838823556900024,
        -0.18839170038700104,
        0.1658773273229599,
        0.06986377388238907,
        -0.1709040254354477,
        -0.35343438386917114,
        0.030480187386274338,
        -0.19368381798267365,
        0.01271264348179102,
        0.14778228104114532,
        -0.5621148347854614,
        -0.22406050562858582,
        -0.18730130791664124,
        -0.1898111253976822,
        -0.08683975040912628,
        0.45590484142303467,
        -0.1330489218235016,
        0.005207024980336428,
        -0.45928266644477844,
        -0.23243054747581482,
        0.30899879336357117,
        -0.16170872747898102,
        -0.3307715654373169,
        -0.15735110640525818,
        -0.04345638304948807,
        0.2300073802471161,
        -0.7755991816520691,
        0.18506935238838196,
        0.022421853616833687,
        -0.49751755595207214,
        -0.11137832701206207,
        0.2719225287437439,
        -0.019441742449998856,
        -0.2268151044845581,
        -0.22912068665027618,
        0.3510928750038147,
        -0.024968191981315613,
        -0.06753925234079361,
        -0.3800698518753052,
        0.14560642838478088,
        -0.31164154410362244,
        0.10543999075889587,
        0.17645491659641266,
        0.22851106524467468,
        0.33644312620162964,
        -0.01141431089490652,
        0.48480337858200073,
        -0.04242698848247528,
        0.05093842372298241,
        -0.2605590224266052,
        0.2641003131866455,
        0.2562582492828369,
        -0.2941157817840576,
        -0.13430938124656677,
        -0.1617981195449829,
        0.22564147412776947,
        -0.17791219055652618,
        -0.1392398178577423,
        0.31029951572418213,
        0.04380365461111069,
        -0.010918708518147469,
        0.05522473528981209,
        -0.14668826758861542,
        0.08615820854902267,
        0.03145303577184677,
        -0.15896640717983246,
        0.18063049018383026,
        -0.08280863612890244,
        0.1888703852891922,
        0.03874295949935913,
        0.2966877222061157,
        -0.12676513195037842,
        -0.1330256164073944,
        0.2588983178138733,
        0.03011397458612919,
        0.015252634882926941,
        0.17041046917438507,
        0.24643729627132416,
        -0.13413268327713013,
        0.22370126843452454,
        -0.4679492712020874,
        -0.12117462605237961,
        -0.021962111815810204,
        -0.21923868358135223,
        0.4700887203216553,
        0.3063061833381653,
        0.050578679889440536,
        0.3999694287776947,
        0.030881758779287338,
        -0.32350867986679077,
        0.14292491972446442,
        0.1279623806476593,
        0.11061335355043411,
        -0.2643275856971741,
        0.14242592453956604,
        -0.5315757393836975,
        0.29035621881484985,
        -0.3135620355606079,
        0.2857319712638855,
        -0.14554445445537567,
        -0.1216941773891449,
        0.1658354252576828,
        -0.003774235723540187,
        -0.01982695981860161,
        -0.1298261135816574,
        0.16439199447631836,
        0.3248583972454071,
        -0.0632241815328598,
        -0.1844501942396164,
        -0.2922880947589874,
        -0.4013447165489197,
        0.07059147208929062,
        -0.1592942476272583,
        -0.019587302580475807,
        0.09035488218069077,
        0.11451670527458191,
        -0.1729666143655777,
        0.2287268489599228,
        -0.24954162538051605,
        0.32945460081100464,
        -0.054108768701553345,
        -0.2782582640647888,
        -0.22581103444099426,
        0.2738712430000305,
        -0.09198913723230362,
        -0.315235435962677,
        -0.0043370965868234634,
        0.09727215021848679,
        0.22356371581554413,
        -0.38825565576553345,
        0.03736016899347305,
        0.03764044865965843,
        0.025467919185757637,
        0.21127884089946747,
        0.06180145591497421,
        -0.24457959830760956,
        0.11290186643600464,
        -0.10361040383577347,
        0.02287977933883667,
        -0.1909199208021164,
        -0.13376569747924805,
        -0.1543300598859787,
        -0.11257371306419373,
        -0.09015428274869919,
        -0.08469948172569275,
        -0.0992746502161026,
        -0.26559939980506897,
        0.34062430262565613,
        0.2033790647983551,
        -0.012595782987773418,
        -0.2859623432159424,
        0.09837540984153748,
        -0.10086943209171295,
        -0.241229847073555,
        0.0074124387465417385,
        -0.03850309178233147,
        0.07754340767860413,
        0.13894225656986237,
        0.2644702196121216,
        -0.2565860450267792,
        0.08276808261871338,
        -0.22308625280857086,
        -0.16602008044719696,
        -0.15373413264751434,
        0.10452591627836227,
        0.09573877602815628,
        -0.2710953950881958,
        0.06527501344680786,
        0.15572328865528107,
        -0.23793144524097443,
        -0.2865702509880066,
        0.10221097618341446,
        0.22948120534420013,
        -0.053327832370996475,
        -0.002606181427836418,
        0.2648959457874298,
        -0.3674853444099426,
        -0.05036136135458946,
        -0.23754414916038513,
        -0.22955703735351562,
        -0.09024611115455627,
        -0.012413433752954006,
        0.07746291160583496,
        -0.23537640273571014,
        -0.11697586625814438,
        0.2604946196079254,
        0.2472526580095291,
        0.199154794216156,
        0.1374196708202362,
        -0.26569730043411255,
        -0.011236377991735935,
        -0.14630350470542908,
        0.092677541077137,
        -0.06192687526345253,
        0.0683244988322258,
        -0.23190462589263916,
        -0.1844986230134964,
        0.21827566623687744,
        0.02114100009202957,
        -0.1341206431388855,
        0.09257616847753525,
        -0.09652689844369888,
        -0.18804721534252167,
        0.016307953745126724,
        0.18246273696422577,
        0.25977060198783875,
        -0.1952427178621292,
        0.18337476253509521,
        -0.03195866569876671,
        -0.0776519849896431,
        0.2186495065689087,
        -0.15085569024085999,
        0.08248209953308105,
        -0.021190043538808823,
        -0.09529448300600052,
        -0.40011176466941833,
        -0.18866491317749023,
        -0.2624807357788086,
        -0.11619773507118225,
        -0.06561274081468582,
        -0.19330035150051117,
        0.3418516218662262,
        -0.12745952606201172,
        -0.03129291161894798,
        -0.3734237849712372,
        0.16613344848155975,
        0.05123618245124817,
        0.08182381838560104,
        0.1485529989004135,
        -0.3936399519443512,
        0.05030658841133118,
        -0.25775185227394104,
        -0.30485057830810547,
        -0.19341188669204712,
        0.2761319875717163,
        -0.08540745079517365,
        0.22182360291481018,
        -0.18839703500270844,
        0.3643549084663391,
        -0.21901458501815796,
        0.24907390773296356,
        -0.1701166182756424,
        0.2317165732383728,
        0.1639184206724167,
        -0.10771472007036209,
        0.010824001394212246,
        0.1344812959432602,
        0.18439644575119019,
        0.12229207158088684,
        0.05641597881913185,
        -0.4857126772403717,
        0.12873874604701996,
        0.12607872486114502,
        -0.3455621302127838,
        -0.03986059129238129,
        0.1804227977991104,
        0.06950480490922928,
        -0.04392983764410019,
        -0.3998459279537201,
        -0.04198534041643143,
        -0.14730112254619598,
        -0.04240640625357628,
        0.07385459542274475,
        0.24932831525802612,
        0.1549508422613144,
        0.02718612551689148,
        0.03723184019327164,
        -0.09288830310106277,
        0.2984086573123932,
        -0.12273500114679337,
        0.10185020416975021,
        -0.2535363733768463,
        -0.1914042830467224,
        0.03370445966720581,
        0.15759404003620148,
        0.08503387868404388,
        0.1594841182231903,
        0.048452962189912796,
        -0.27861300110816956,
        0.43808549642562866,
        -0.4080038070678711,
        -0.1863856166601181,
        -0.06221487745642662,
        0.025530681014060974,
        -0.13405649363994598,
        0.1693406105041504,
        0.04376533627510071,
        -0.09956423938274384,
        0.24093234539031982,
        -0.49695366621017456,
        0.12344556301832199,
        0.221459299325943,
        -0.44749435782432556,
        0.04069875180721283,
        -0.27213308215141296,
        -0.12622196972370148,
        0.2491038292646408,
        -0.11853384971618652,
        0.03400249034166336,
        -0.33924293518066406,
        0.24600917100906372,
        0.18232785165309906,
        -0.4898894727230072,
        -0.20203590393066406,
        0.1547008454799652,
        0.30323952436447144,
        -0.2348577231168747,
        -0.17743104696273804,
        0.012363262474536896,
        0.051605045795440674,
        -0.09531401842832565,
        0.35704129934310913,
        0.081151083111763,
        -0.0998050794005394,
        -0.5825100541114807,
        -0.3346184492111206,
        -0.02300429344177246,
        -0.2793988883495331,
        0.05128507688641548,
        0.1561627835035324,
        0.1693177968263626,
        -0.44715389609336853,
        -0.5305837988853455,
        0.24351637065410614,
        0.09780461341142654,
        -0.09172278642654419,
        -0.09056362509727478,
        0.11815562844276428,
        0.3030845820903778,
        -0.0858268067240715,
        0.06320078670978546,
        0.02007095329463482,
        -0.049061935395002365,
        -0.2961685359477997,
        -0.09355394542217255,
        -0.40311121940612793,
        0.03565936163067818,
        0.047109298408031464,
        -0.3075043261051178,
        -0.188188374042511,
        0.18145005404949188,
        0.05649879574775696,
        -0.23334191739559174,
        -0.7220302820205688,
        -0.18427136540412903,
        -0.13747979700565338,
        -0.044873155653476715,
        0.2283962219953537,
        -0.37621647119522095,
        -0.26676318049430847,
        -0.25158804655075073,
        0.0047293771058321,
        -0.05789981782436371,
        0.5943883061408997,
        -0.6084316968917847,
        -0.08385814726352692,
        0.12192916125059128,
        0.2991222143173218,
        0.09519585222005844,
        -0.34995609521865845,
        -0.14206072688102722,
        0.36443114280700684,
        0.17977945506572723,
        -0.06272700428962708,
        0.36216244101524353,
        0.11670519411563873,
        0.10333587974309921,
        -0.06693648546934128,
        0.15436263382434845,
        -0.7320858836174011,
        0.30023905634880066,
        0.13019774854183197,
        -0.16081638634204865,
        -0.017948482185602188,
        0.40408989787101746,
        -0.10206933319568634,
        -0.1591162234544754,
        0.2785947620868683,
        0.23576703667640686,
        -0.10747241973876953,
        -0.04782361164689064,
        -0.005693226121366024,
        0.29766547679901123,
        0.12652625143527985,
        0.2346835434436798,
        -0.2633073925971985,
        -0.24165986478328705,
        -0.20304089784622192,
        0.14917254447937012,
        0.1719309687614441,
        0.17886072397232056,
        0.16274531185626984,
        0.17852723598480225,
        -0.24497802555561066,
        -0.27426689863204956,
        0.39312320947647095,
        0.06875419616699219,
        0.17141185700893402,
        -0.22097870707511902,
        0.3030664324760437,
        -0.08176784217357635,
        0.25976499915122986,
        -0.016917971894145012,
        -0.07033699750900269,
        0.06760451197624207,
        -0.023354312404990196,
        0.2174561619758606,
        0.26801350712776184,
        0.1490345299243927,
        0.035397280007600784,
        0.08728238195180893,
        0.12994904816150665,
        -0.023765016347169876,
        -0.20126250386238098,
        -0.007525402586907148,
        -0.14201420545578003,
        0.3838527202606201,
        -0.05214794725179672,
        -0.08998264372348785,
        -0.09016012400388718,
        0.09539734572172165,
        0.18983544409275055,
        -0.1940516084432602,
        0.4151104986667633,
        0.3028753101825714,
        -0.3149058520793915,
        -0.09457368403673172,
        -0.10644593089818954,
        0.2502390444278717,
        -0.22211715579032898,
        0.1150224506855011,
        0.04024970903992653,
        -0.08411954343318939,
        0.09473149478435516,
        -0.12100633233785629,
        0.2972186505794525,
        -0.21922029554843903,
        -0.04438619688153267,
        0.04299837350845337,
        -0.3362596035003662,
        0.32975614070892334,
        -0.12286710739135742,
        0.04611242190003395,
        0.5318649411201477,
        0.15143431723117828,
        0.11688888072967529,
        0.12298502773046494,
        -0.11733260005712509,
        0.38570788502693176,
        -0.5845272541046143,
        -0.3578222990036011,
        0.03603283688426018,
        -0.23454205691814423,
        -0.3258816599845886,
        -0.20940233767032623,
        0.08473491668701172,
        0.2784205377101898,
        0.09485465288162231,
        -0.28553512692451477,
        -0.09772419184446335,
        0.06136550381779671,
        0.009125374257564545,
        0.2656211853027344,
        -0.007494868710637093,
        -0.31461888551712036,
        0.1870046705007553,
        -0.15771837532520294,
        -0.006907859817147255,
        -0.12975621223449707,
        -0.2318347990512848,
        -0.26393458247184753,
        -0.04539977386593819,
        -0.040624335408210754,
        -0.3107379376888275,
        0.3216888904571533,
        0.05522686988115311,
        0.14178867638111115,
        0.1619519144296646,
        -0.2616429328918457,
        -0.10655546933412552,
        0.09971785545349121,
        -0.027571331709623337,
        -0.25029483437538147,
        -0.15276938676834106,
        0.0034850689116865396,
        0.062215037643909454,
        0.009512577205896378,
        -0.15380622446537018,
        0.08762220293283463,
        -0.3095599114894867,
        0.2586943507194519,
        0.03067665547132492,
        -0.1290891319513321,
        0.2039784938097,
        -0.3770153224468231,
        0.03128531947731972,
        0.04521481692790985,
        0.006877515465021133,
        -0.1358722746372223,
        -0.35485637187957764,
        -0.2032516449689865,
        -0.044988613575696945,
        -0.4438796937465668,
        -0.43778032064437866,
        -0.27237871289253235,
        0.003596206661313772,
        -0.24719108641147614,
        -0.3061118423938751,
        0.1770332306623459,
        0.20069225132465363,
        -0.25529763102531433,
        0.4568622410297394,
        -0.21197490394115448,
        0.3112051784992218,
        -0.27458813786506653,
        -0.06137940660119057,
        0.024302443489432335,
        -0.41804802417755127,
        -0.2925286591053009,
        0.046538323163986206,
        -0.388677716255188,
        -0.1973566710948944,
        -0.3380337059497833,
        -0.35789722204208374,
        0.3289395272731781,
        -0.006363841239362955,
        0.4702821671962738,
        0.11408426612615585,
        -0.0473383367061615,
        -0.03495752811431885,
        -0.02157856710255146,
        0.7045491933822632,
        -0.36285245418548584,
        -0.24858029186725616,
        0.6232843995094299,
        0.07367970049381256,
        0.31820839643478394,
        0.5102717876434326,
        0.1876843124628067,
        -0.03411717340350151,
        0.25493723154067993,
        0.004626106936484575,
        0.6718624830245972,
        -0.1274007111787796,
        0.4524143636226654,
        -0.27973538637161255,
        0.2194906324148178,
        -0.5137376189231873,
        0.5906156897544861,
        0.2628045380115509,
        0.013144505210220814,
        0.548287570476532,
        0.7211364507675171,
        -0.11106547713279724,
        -0.5765565633773804,
        0.5517929792404175,
        0.16678035259246826,
        -0.24347779154777527,
        0.12104625999927521,
        0.2806169092655182,
        -0.8197292685508728,
        -0.2166445553302765,
        -0.5178403854370117,
        0.38038089871406555,
        0.10762353241443634,
        0.11992986500263214,
        0.34009435772895813,
        -0.1156783252954483,
        0.25915858149528503,
        -0.2818458676338196,
        0.2501450479030609,
        -0.11420661211013794,
        0.11971338838338852,
        0.19205865263938904,
        -0.3558770716190338,
        0.35435211658477783,
        0.41236260533332825,
        -0.43109142780303955,
        0.14760440587997437,
        -0.09258043766021729,
        -0.13524411618709564,
        -0.010198860429227352,
        -0.23064737021923065,
        -0.06744913756847382,
        0.36612939834594727,
        -0.3404875695705414,
        -0.12375497072935104,
        0.4379553198814392,
        0.23647749423980713,
        -0.02693093940615654,
        0.0279548242688179,
        -0.22957001626491547,
        -0.03670964390039444,
        -0.010918064042925835,
        -0.3596160113811493,
        -0.42919474840164185,
        0.10398361831903458,
        -0.5590345859527588,
        -0.6882321834564209,
        0.21785230934619904,
        -0.11268631368875504,
        0.13837893307209015,
        -0.30863267183303833,
        -0.010868891142308712,
        0.15354205667972565,
        -0.6187509894371033,
        -0.09779396653175354,
        0.35693633556365967,
        0.29726579785346985,
        -0.06609799712896347,
        -0.7368906140327454,
        0.31504979729652405,
        -0.13056357204914093,
        -0.485836386680603,
        -0.13960306346416473,
        -0.33886900544166565,
        -0.0728365108370781,
        0.4103958308696747,
        0.13637542724609375,
        0.22379261255264282,
        -0.3096332848072052,
        -0.17021024227142334,
        -0.004078591708093882,
        0.10386825352907181,
        -0.26169368624687195,
        -1.1819652318954468,
        -0.16327707469463348,
        0.15024615824222565,
        -0.1345393806695938,
        0.08257097005844116,
        0.17181041836738586,
        0.3863829970359802,
        -0.056190770119428635,
        0.046224646270275116,
        -0.131670743227005,
        0.04706525802612305,
        0.01635688729584217,
        0.14754457771778107,
        0.1817321479320526,
        -0.07414793223142624,
        -0.21060772240161896,
        0.12364843487739563,
        0.25143519043922424,
        -0.10151638090610504,
        0.07378844171762466,
        -0.0989614874124527,
        -0.19161421060562134,
        -0.057373836636543274,
        -0.05943186953663826,
        0.10341481119394302,
        -0.07391339540481567,
        0.3378511965274811,
        0.1721024215221405,
        0.3031359314918518,
        -0.15143993496894836,
        -0.119362972676754,
        -0.409803181886673,
        -0.3840794265270233,
        -0.6094369888305664,
        -0.20983387529850006,
        0.17971490323543549,
        -0.1718921810388565,
        0.18150919675827026,
        0.0249816682189703,
        0.1253136694431305,
        -0.229837104678154,
        0.02181270718574524,
        -0.2504105269908905,
        -0.28386497497558594,
        -0.32830944657325745,
        0.28279879689216614,
        0.0373581126332283,
        -0.16288943588733673,
        -0.07327959686517715,
        -0.040473323315382004,
        0.022002216428518295,
        0.1057356521487236,
        0.1941743940114975,
        -0.05024420842528343,
        -0.2002466917037964,
        -0.2770843207836151,
        -0.2319706529378891,
        -0.18319925665855408,
        0.056803517043590546,
        -0.3050324320793152,
        0.24233467876911163,
        -0.13250181078910828,
        0.16186749935150146,
        0.003231285372748971,
        0.08455762267112732,
        -0.10720504075288773,
        -0.13613072037696838,
        -0.2902531921863556,
        -0.058440372347831726,
        0.29747357964515686,
        0.29742780327796936,
        0.24040110409259796,
        0.15495777130126953,
        -0.021040312945842743,
        -0.22404880821704865,
        0.040500979870557785,
        -0.2687113285064697,
        -0.06916937232017517,
        -0.08122653514146805,
        -0.09870629757642746,
        0.11593881249427795,
        -0.15355660021305084,
        0.1405208706855774,
        0.3728695213794708,
        -0.04042651131749153,
        -0.048650018870830536,
        -0.2406749129295349,
        0.14336848258972168,
        -0.09813396632671356,
        -0.04867485538125038,
        -0.07598916441202164,
        -0.2771880626678467,
        -0.2782864570617676,
        0.25978824496269226,
        0.0448894202709198,
        -0.34102487564086914,
        -0.03243119269609451,
        -0.3377784490585327,
        0.08382871001958847,
        -0.23130066692829132,
        0.052360039204359055,
        0.3078876733779907,
        0.1552370935678482,
        0.051192741841077805,
        -0.14326056838035583,
        -0.01471718866378069,
        -0.27639448642730713,
        0.07822037488222122,
        -0.03320536017417908,
        0.18855087459087372,
        -0.1185559332370758,
        -0.07719918340444565,
        0.07750900834798813,
        0.01158595085144043,
        0.0558222271502018,
        0.23160657286643982,
        0.142034649848938,
        -0.03804802894592285,
        -0.09869019687175751,
        0.3319146931171417,
        0.05318569019436836,
        -0.20702838897705078,
        -0.10883206129074097,
        -0.28378066420555115,
        -0.128336563706398,
        0.11992599070072174,
        -0.2796570062637329,
        -0.02897694893181324,
        0.10775215923786163,
        -0.3539157211780548,
        -0.11055225878953934,
        -0.14942041039466858,
        -0.07057354599237442,
        -0.16430388391017914,
        -0.14110025763511658,
        -0.3275359869003296,
        -0.29390883445739746,
        0.017775965854525566,
        0.09419791400432587,
        -0.06089421734213829,
        -0.2191101759672165,
        -0.09372392296791077,
        0.08310044556856155,
        -0.21526436507701874,
        0.13939031958580017,
        0.014302670955657959,
        -0.05746142193675041,
        -0.00905915629118681,
        -0.27053922414779663,
        -0.26429444551467896,
        0.2629784345626831,
        0.14774084091186523,
        -0.21474838256835938,
        0.19701339304447174,
        -0.1574849635362625,
        0.2129945307970047,
        -0.13136476278305054,
        0.24215811491012573,
        0.2597448229789734,
        -0.029629522934556007,
        -0.16188809275627136,
        0.19298678636550903,
        0.38344690203666687,
        -0.021919820457696915,
        -0.2918206751346588,
        -0.1387527585029602,
        0.15629269182682037,
        -0.25950244069099426,
        -0.09968549013137817,
        0.12270254641771317,
        -0.24671661853790283,
        0.05749576538801193,
        -0.04589883238077164,
        -0.29774853587150574,
        0.16471993923187256,
        0.17878665030002594,
        -0.20966576039791107,
        0.17033648490905762,
        -0.11115735024213791,
        -0.15433663129806519,
        -0.14081840217113495,
        -0.27982163429260254,
        -0.00669661583378911,
        0.16464672982692719,
        -0.0017754430882632732,
        -0.35858267545700073,
        0.021798910573124886,
        0.09671733528375626,
        0.18745481967926025,
        -0.2742447257041931,
        -0.26779383420944214,
        -0.25954896211624146,
        -0.008601125329732895,
        0.0027541748713701963,
        -0.16068650782108307,
        0.2790355384349823,
        -0.015623432584106922,
        -0.06706646084785461,
        0.16364580392837524,
        0.30039045214653015,
        0.11725232005119324,
        0.22501754760742188,
        -0.29500454664230347,
        0.05331820622086525,
        0.14119534194469452,
        0.2715134024620056,
        0.16981951892375946,
        -0.12261326611042023,
        -0.07874536514282227,
        -0.33857518434524536,
        0.06209343299269676,
        -0.22528958320617676,
        0.14535357058048248,
        -0.27514901757240295,
        -0.2039121836423874,
        0.1509287804365158,
        -0.13224521279335022,
        -0.13324078917503357,
        0.3295923173427582,
        -0.2387857288122177,
        -0.02029331773519516,
        -0.025012090802192688,
        -0.18993672728538513,
        -0.06535396724939346,
        -0.1973549723625183,
        0.05857899412512779,
        0.056005191057920456,
        -0.07882294803857803,
        0.11047996580600739,
        -0.052649687975645065,
        -0.4532257318496704,
        -0.0332338809967041,
        -0.10081230103969574,
        -0.226461261510849,
        0.34774765372276306,
        -0.31159502267837524,
        -0.14894609153270721,
        -0.2142714112997055,
        -0.12991879880428314,
        -0.16734299063682556,
        0.6717665791511536,
        0.06726498901844025,
        0.21787238121032715,
        -0.36092591285705566,
        0.0009656852344051003,
        -0.22959615290164948,
        0.021239222958683968,
        -0.5496561527252197,
        0.04584268480539322,
        -0.15167909860610962,
        0.23927250504493713,
        0.11003492772579193,
        -0.09635395556688309,
        0.3454260230064392,
        -0.3252732455730438,
        0.25120583176612854,
        -0.4224892556667328,
        0.1484103500843048,
        -0.044737767428159714,
        -0.17420710623264313,
        0.20615190267562866,
        -0.3160177171230316,
        -0.06024014949798584,
        -0.03235788270831108,
        -0.26611432433128357,
        -0.013214477337896824,
        0.255957692861557,
        -0.01884191855788231,
        -0.3529357314109802,
        0.2707418203353882,
        0.09107483178377151,
        0.07656524330377579,
        -0.43911004066467285,
        0.041582509875297546,
        0.0498741939663887,
        0.09927070885896683,
        0.215946763753891,
        -0.17244575917720795,
        0.10511090606451035,
        0.12473183870315552,
        0.2553360164165497,
        -0.18984808027744293,
        -0.08968067914247513,
        -0.06842593848705292,
        -0.1552741974592209,
        -0.13045933842658997,
        -0.09630977362394333,
        0.0020442036911845207,
        0.14962896704673767,
        -0.001222176244482398
      ]
    },
    {
      "activation": "sigmoid",
      "architecture": "dense",
      "bias": [
        -0.9963374137878418
      ],
      "weights": [
        0.7803112864494324,
        0.24686764180660248,
        0.20436938107013702,
        -0.3410641849040985,
        0.5955171585083008,
        -0.21215708553791046,
        0.37925368547439575,
        0.0994146466255188,
        -0.3130749762058258,
        0.030679600313305855,
        0.24981649219989777,
        0.2490471452474594,
        0.6851889491081238,
        0.5704843401908875,
        0.6355971097946167,
        -0.15673772990703583,
        -0.20468758046627045,
        -0.5986912250518799,
        0.18280979990959167,
        0.3459297716617584,
        -0.4896344542503357,
        -0.3978189527988434,
        0.9726458191871643,
        -0.3467590808868408,
        0.3150734007358551,
        -0.24677716195583344,
        -0.10348695516586304,
        0.22052623331546783,
        -0.23290391266345978,
        -0.13904158771038055,
        0.425214946269989,
        0.25381702184677124
      ]
    }
  ],
  "nodes": [
    {
      "layer_index": 0,
      "sources": [
        4
      ],
      "type": "feed_forward"
    },
    {
      "layer_index": 1,
      "sources": [
        0
      ],
      "type": "feed_forward"
    },
    {
      "layer_index": 2,
      "sources": [
        1
      ],
      "type": "feed_forward"
    },
    {
      "layer_index": 3,
      "sources": [
        2
      ],
      "type": "feed_forward"
    },
    {
      "size": 6,
      "sources": [
        0
      ],
      "type": "input"
    }
  ],
  "outputs": {
    "output_layer": {
      "labels": [
        "sig_prob"
      ],
      "node_index": 3
    }
  }
}
